{"learner":{"attributes":{"best_iteration":"9","best_ntree_limit":"10"},"feature_names":["pH","Iron","Nitrate","Chloride","Lead","Zinc","Turbidity","Fluoride","Copper","Odor","Sulfate","Conductivity","Chlorine","Manganese","Total Dissolved Solids","Water Temperature","Air Temperature","Color_Colorless","Color_Faint Yellow","Color_Light Yellow","Color_Near Colorless","Color_Yellow","Source_Aquifer","Source_Ground","Source_Lake","Source_Reservoir","Source_River","Source_Spring","Source_Stream","Source_Well"],"feature_types":["float","float","float","float","float","float","float","float","float","float","float","float","float","float","float","float","float","int","int","int","int","int","int","int","int","int","int","int","int","int"],"gradient_booster":{"gbtree":{"model":{"gbtree_model_param":{"num_parallel_tree":"1","num_trees":"10","size_leaf_vector":"0"},"tree_info":[0,0,0,0,0,0,0,0,0,0],"trees":[{"base_weights":[-7.8558505E-1,-1.0650539E0,9.182015E-1,-1.2423902E0,9.0964323E-1,9.379546E-1,9.1158855E-1,-1.3980587E0,9.0943843E-1,9.0764755E-1,1.0852423E0,8.8518775E-1,9.4768864E-1,9.062113E-1,9.352768E-1,-1.5218875E0,9.21822E-1,7.511483E-1,9.1583353E-1,9.241385E-1,8.974247E-1,1.1665109E0,8.888232E-1,8.114374E-1,9.2457E-1,9.6305734E-1,8.971306E-1,9.0416914E-1,9.852762E-1,9.2832965E-1,1.0731645E0,-1.6251334E0,9.029798E-1,9.924377E-1,9.151085E-1,6.788311E-1,1.0138451E0,9.082178E-1,9.463382E-1,9.327836E-1,8.5314614E-1,9.082192E-1,8.620777E-1,8.116032E-1,1.2389014E0,9.416472E-1,-2.691949E-1,8.498592E-1,5.910964E-1,1.0329348E0,8.9166933E-1,9.6519893E-1,6.6398525E-1,8.60983E-1,9.549762E-1,9.1186285E-1,8.8556826E-1,9.956935E-1,4.508478E-1,1.0203464E0,9.1644305E-1,-9.648271E-7,1.0879246E0,8.9694786E-1,-1.7066696E0,8.85516E-1,9.473991E-1,1.0267037E0,8.720993E-1,9.711159E-1,9.071633E-1,8.979022E-1,5.90854E-1,-6.8912226E-7,1.0391686E0,8.957528E-1,9.3547034E-1,9.5227635E-1,6.578878E-1,9.3511623E-1,6.6783834E-1,7.515176E-1,9.093755E-1,8.16362E-1,9.1409713E-1,4.6490616E-1,8.6585355E-1,1.2396275E0,4.6174216E-1,1.2533866E0,-0E0,-2.957412E-1,9.945153E-1,6.9786927E-7,-9.648271E-7,8.8160735E-1,5.927439E-1,2.6620078E-1,7.217047E-1,1.1822668E0,9.1748893E-1,9.5187086E-1,8.237656E-1,8.6815464E-1,9.7160983E-1,9.9795216E-1,4.0154934E-1,8.073874E-1,9.3540615E-1,9.65824E-1,4.821867E-1,8.9842474E-1,9.3637335E-1,4.9941623E-1,8.8752675E-1,7.6735425E-1,1.0174363E0,-0E0,1.2548392E0,9.73266E-1,1.2324288E0,8.906714E-1,9.5012414E-1,1.119663E0,5.2374464E-1,9.1349864E-1,8.307053E-1,-1.7768503E0,9.1525567E-1,9.530024E-1,8.7461346E-1,1.0386713E0,9.2972606E-1,1.1692382E0,9.8590857E-1,5.574012E-1,9.277334E-1,1.0114695E0,8.4980637E-1,8.9596355E-1,9.547143E-1,8.565121E-1,1.5421307E0,5.127966E-1,9.376157E-1,1.1528168E0,8.20765E-1,8.1973237E-1,9.0233684E-1,1.0214578E0,9.170554E-1,9.6671844E-1,8.50193E-1,1.03292E0,4.4395843E-1,9.206625E-1,9.6643025E-1,7.605115E-1,-3.9735984E-2,8.021017E-1,3.0579904E-1,1.1562119E0,8.7884283E-1,8.802063E-1,7.204369E-1,7.516227E-1,9.166851E-1,6.699289E-1,-2.1602686E-1,8.7104887E-1,5.7011086E-1,1.451285E0,-0E0,8.670035E-1,-8.1125766E-2,1.4239125E0,1.1004056E0,3.488461E-7,-8.0134663E-7,3.807489E-1,1.1045226E0,9.1638845E-1,6.340502E-1,9.0863776E-1,3.0480146E-1,8.8689156E-2,9.614444E-1,-1.4654702E-1,7.789757E-1,-2.073513E-1,1.2171321E0,1.9917107E-1,9.744586E-1,1.7662916E-1,9.635963E-1,8.01914E-1,1.2646644E0,1.0296843E0,8.0297536E-1,9.7600234E-1,8.127999E-1,-4.1341738E-7,1.1313378E0,8.147195E-1,-2.1191627E-2,3.849268E-1,8.195587E-1,9.623661E-1,6.9086784E-1,9.9864995E-1,8.3965665E-1,6.971066E-1,-6.901962E-1,1.0209526E0,8.931515E-1,1.023297E0,9.227133E-1,7.7539545E-1,1.2927431E-1,8.619836E-1,9.160451E-1,3.55069E-1,9.5437104E-1,1.0453445E0,8.5515803E-1,-5.3640974E-1,8.589771E-1,1.480045E-6,4.807429E-7,1.1113394E0,8.5068566E-1,1.0319886E0,1.4282385E0,9.659137E-1,8.634652E-1,5.8478594E-1,9.5780677E-1,7.227934E-1,1.1503106E0,8.993308E-1,-1.0846512E0,9.163635E-1,5.7083327E-1,8.194787E-1,1.2387005E0,-1.8203053E0,9.116528E-1,8.8673776E-1,9.6476483E-1,4.9877363E-1,9.624199E-1,8.6358684E-1,9.401902E-1,1.1331749E-1,1.0507665E0,9.3735933E-1,5.718739E-1,5.526407E-1,1.199251E0,9.033166E-1,1.0979406E0,8.7105614E-1,1.08342506E-1,9.5095885E-1,2.3646404E-1,1.3198062E0,9.9610454E-1,9.07589E-1,4.760438E-1,8.508315E-1,9.1283697E-1,9.305062E-1,1.0556532E0,7.3097616E-1,1.0187998E0,1.8041954E-6,2.9631357E-7,4.2287496E-1,1.009798E0,7.614821E-1,1.3247993E0,1.2485943E0,7.6333356E-1,9.858044E-1,2.3091377E-1,8.9266735E-1,7.210586E-1,7.200485E-1,9.050293E-1,1.0531827E0,8.275411E-1,8.788683E-1,9.5814127E-1,8.4184146E-1,9.77161E-1,7.695646E-1,1.0283295E0,1.1513406E0,-1.2079575E-7,-3.3106884E-1,5.8483577E-1,9.2763066E-1,8.1852096E-1,9.5217836E-1,1.0829113E0,2.7495024E-1,9.04868E-1,8.297209E-1,-5.2501076E-1,7.501906E-1,1.0606157E0,-1.8693142E-1,7.0517E-1,3.3835834E-1,1.2593015E0,8.442793E-1,1.1153647E0,9.108999E-1,2.7756464E-1,8.5719484E-1,5.629666E-1,1.7402147E-6,7.177833E-1,8.907106E-1,9.315849E-1,3.0131695E-1,1.1377475E0,-7.21068E-1,8.463063E-7,9.009052E-1,8.196906E-1,6.513128E-1,-4.3978983E-1,1.5593262E0,5.9277755E-7,-4.1341738E-7,1.1699811E0,9.1125474E-7,-5.6681746E-1,1.5531435E0,1.0958188E0,-0E0,1.1295373E0,-2.4031536E-1,8.8811266E-1,7.90751E-1,1.3281229E0,6.4431715E-1,9.4169295E-1,8.1867594E-1,6.643658E-2,1.130002E0,-5.8281917E-2,4.8884717E-1,-3.0245516E-1,6.743288E-1,-3.9325538E-1,4.1480786E-1,1.36694E-6,7.728574E-7,-1.03052E-6,8.423289E-1,-0E0,3.488461E-7,-6.9786927E-7,1.3847878E0,9.317629E-1,-6.363947E-1,7.066511E-1,7.261448E-1,1.1416199E0,-6.328024E-1,1.0307899E0,9.713902E-1,1.3653737E-1,3.430272E-1,8.1938565E-1,1.4273335E0,2.957412E-1,1.0458441E0,-3.488461E-7,7.173325E-1,9.522672E-1,9.783335E-1,6.593017E-1,4.2644832E-1,8.907925E-1,-3.488461E-7,1.2407491E0,4.1613397E-1,1.6135494E-6,1.0371774E0,-2.810124E-1,-5.8133006E-1,7.6258403E-1,8.638122E-1,6.8000597E-1,9.7786474E-1,5.456799E-1,-6.8912226E-7,7.4274087E-1,1.0032647E0,-0E0,9.138344E-1,5.472334E-1,-4.5556962E-7,8.960231E-1,-0E0,-1.1219504E-6,1.0349269E0,4.98308E-1,8.8897747E-1,9.965532E-1,1.0331472E0,2.0500492E-1,9.135426E-1,1.0064245E0,-3.4353852E-1,9.724753E-1,-7.4123234E-1,3.6660805E-1,9.478025E-1,8.520366E-1,9.9887526E-1,8.933934E-1,-2.1776168E-1,9.775986E-1,1.086141E0,-0E0,1.0961113E0,8.919483E-1,9.418378E-1,2.2443481E-1,-9.561774E-1,6.9786927E-7,-0E0,1.4821693E-6,1.244064E0,9.9966854E-1,9.274036E-1,6.132399E-1,1.2129245E0,6.1389214E-1,1.7647053E-6,1.322739E0,9.84324E-1,4.1696674E-1,7.072136E-1,8.7610394E-1,-2.1602686E-1,7.286603E-1,1.1718482E0,9.4547665E-1,-1.0723841E-1,1.0291251E0,1.411157E0,1.0916728E0,2.1208373E-1,1.1870916E0,-3.488461E-7,-1.4425541E-6,6.350961E-7,9.0437777E-7,2.3334914E-8,7.883622E-7,1.287344E-6,7.988558E-7,5.911482E-7,1.405474E-6,-1.8284828E-6,8.1319547E-7,9.215581E-7,8.0243007E-7,8.799355E-7,6.7672687E-7,9.0469E-7,9.991925E-7,9.954956E-7,-1.0490324E-7,8.9836703E-7,1.0305345E-6,8.4126805E-7,9.5105696E-7,3.4308715E-7,9.3761463E-7,-6.793914E-7,9.690978E-7,8.114412E-7,1.0813371E-6,8.5296176E-7,9.566905E-7,9.742633E-7,2.1691402E-7,-4.8525146E-7,1.0560784E-6,1.0543987E-6,1.3760022E-6,7.4435104E-7,9.818656E-7,1.1085128E-6,5.887459E-7,9.988786E-7,-5.9277755E-7,-7.7863984E-7,4.2014628E-7,8.452904E-7,1.1037009E-6,-7.728574E-7,7.150852E-7,-2.2772701E-7,1.3841509E-6,5.0152096E-7,9.876159E-7,9.4505225E-7,4.4960262E-7,-2.001089E-8,7.23609E-7,1.0190172E-6,8.247019E-7,7.635464E-7,9.038067E-7,1.3733277E-6,9.090365E-7,1.0844444E-6,8.122673E-7,7.851324E-7,1.748624E-7,-1.849235E-7,1.0676605E-6,3.3283348E-7,8.3944894E-7,5.825288E-7,1.2737803E-6,9.23817E-7,-0E0,1.4051451E-6,3.626326E-7,4.0531265E-7,1.2681546E-6,1.1583526E-6,1.88241E-7,-2.9631357E-7,1.032018E-6,-1.0490324E-7,1.32998E-6,2.509656E-7,9.0024395E-7,1.4002981E-7,7.309534E-7,7.8532946E-7,7.175489E-8,8.618386E-7,9.0280383E-7,1.0955313E-6,9.2748525E-7,1.3963847E-7,8.593872E-7,8.85494E-7,7.275025E-7,9.574052E-7,7.3242336E-7,7.439087E-7,1.1051081E-6,9.670578E-7,6.964616E-7,8.713661E-7,5.8890066E-7,1.0374775E-6,-2.2772701E-7,1.2845346E-6,3.7446827E-7,-8.6588335E-7,5.3833907E-7,6.710883E-7,-6.8341217E-7,9.706287E-7,8.994996E-7,4.830929E-7,8.4661286E-7,8.953597E-7,9.890304E-7,1.267418E-6,9.1163685E-7,6.641541E-7,-5.0341913E-7,7.0420765E-7,1.3328702E-6,3.488461E-7,1.0468924E-6,-1.2950276E-6,6.0446945E-7,7.8589954E-7,1.650295E-7,5.808849E-7,1.257358E-6,5.488101E-7,-5.266621E-7,9.811147E-7,-1.18246646E-7,-4.8525146E-7,8.4511265E-7,1.4001619E-6,9.678541E-7,7.063191E-7,9.023111E-7,1.1900737E-6,1.0555963E-7,-1.9497527E-7,9.106977E-7,5.887522E-8,1.3998564E-6,9.3106144E-7,4.4660138E-7,7.137355E-7,1.7792667E-7,6.6273503E-7,1.4887742E-6,1.1291734E-6,8.7190136E-7,9.4848144E-7,8.97319E-7,1.1100102E-6,2.8802877E-8,1.3532325E-6,-3.488461E-7,-1.3959154E-6,-3.1140854E-7,9.346026E-7,8.4000044E-7,1.0234371E-6,7.8034054E-7,2.1227576E-7,8.6012994E-7,-1.2405319E-6,3.626326E-7,1.6835675E-6,5.9277755E-7,2.5753198E-7,1.4032518E-6,-1.1100102E-6,2.2772701E-7,9.777527E-7,1.6065317E-6,1.1960365E-6,-0E0,1.1468993E-6,2.6498074E-7,4.0531265E-7,-1.4425541E-6,1.5718169E-6,3.1140854E-7,-0E0,9.07825E-7,4.416943E-7,1.3900531E-6,7.420518E-7,-8.463063E-7,9.4388116E-7,5.2614473E-7,4.9122605E-7,1.1687202E-6,3.6185472E-7,-6.264321E-7,2.870807E-7,1.3463354E-6,4.6715232E-7,-1.1219504E-6,-9.5331266E-8,6.845485E-7,-7.551606E-7,5.3833907E-7,9.783225E-7,-2.0410528E-7,-6.4312025E-7,7.728574E-7,1.0468924E-6,-3.488461E-7,2.7403584E-7,9.1387335E-7,-8.0134663E-7,4.416943E-7,1.2079575E-7,1.4030599E-6,1.4989245E-6,7.7135775E-7,-1.32998E-6,2.5753198E-7,1.4016149E-6,-1.6903738E-7,7.9310115E-7,-0E0,4.000849E-7,1.1865815E-6,-9.1125474E-7,-0E0,4.1341738E-7,1.4425541E-6,7.1858045E-7,9.871219E-7,1.3959154E-6,-5.549582E-7,6.4518264E-7,-8.735314E-7,8.2187034E-7,2.4122627E-7,1.6213464E-6,5.072837E-7,-4.807429E-7,1.0468924E-6,-1.3771256E-7,1.0472838E-6,7.9304596E-7,3.0910027E-7,-4.073419E-8,1.0050451E-6,9.121421E-7,9.74276E-7,-4.8525146E-7,7.2346336E-7,8.163712E-7,-2.085988E-8,9.06109E-7,1.0555963E-7,7.3305665E-7,1.4116326E-6,-3.4798643E-7,8.846289E-7,3.488461E-7,1.3959154E-6,-1.32998E-6,-0E0,-1.0441006E-6,3.626326E-7,3.147807E-7,1.198404E-6,8.59714E-7,-1.0555963E-7,-6.0446945E-7,6.8588525E-7,6.8033484E-7,9.860553E-7,1.7046696E-7,9.981048E-7,8.8403095E-7,3.586758E-7,1.0060561E-6,7.409844E-7,-8.892415E-7,1.0468924E-6,1.3341325E-6,8.1147135E-7,-6.184079E-7,6.585756E-7,1.1396122E-6,-3.2295978E-7,1.123067E-6,9.433425E-7,7.5628606E-7,-6.8341217E-7,8.6561636E-7,9.126034E-7,6.692176E-7,1.0098588E-6,9.149515E-7,1.0611702E-6,-1.9572855E-7,1.1100102E-6,5.9393517E-7,9.01566E-7,8.120086E-7,1.0412964E-6,-8.892415E-7,2.9631357E-7,1.105546E-6,-0E0,1.6013922E-7,-1.2881827E-6,6.442395E-7,-6.793914E-7,6.388024E-7,9.672602E-7,8.515352E-7,7.5554743E-7,1.0150113E-6,7.961907E-7,6.745692E-7,8.8839636E-7,-9.737391E-7,2.8609057E-7,1.3030159E-6,1.849235E-7,-0E0,1.120717E-6,4.6715232E-7,-1.0468924E-6,1.0321365E-6,1.2451916E-6,7.005214E-8,9.700541E-7,7.799436E-7,1.2516051E-6,6.391299E-7,-6.228961E-7,-0E0,-1.4293585E-6,6.251224E-7,1.2845802E-6,4.1550138E-7,1.0426156E-6,6.872476E-7,1.0204783E-6,1.4802727E-7,8.211608E-7,-2.9631357E-7,1.2594668E-6,8.86385E-7,-4.3290507E-7,8.24819E-7,1.4008875E-6,-6.09239E-8,9.755693E-7,5.5551478E-8,1.0683339E-6,9.140693E-7,2.8976896E-7,8.4619825E-7,9.827585E-7,-8.167319E-7,1.9497527E-7,1.5560161E-6,5.2295695E-7,-8.892415E-7,1.1869384E-6,3.8231602E-7,9.3542326E-7,-7.951215E-7,7.5371844E-7,1.3283418E-6,4.2239924E-7,1.5546758E-6,1.0330747E-6,1.378825E-6,9.88025E-7,-5.9277755E-7,7.5371844E-7,1.5841445E-6,3.3816053E-7],"categories":[],"categories_nodes":[],"categories_segments":[],"categories_sizes":[],"default_left":[0,0,0,0,0,0,0,0,0,0,0,0,0,0,0,0,0,0,0,0,0,0,0,0,0,0,0,0,0,0,0,0,0,0,0,0,0,0,0,0,0,0,0,0,0,0,0,0,0,0,0,0,0,0,0,0,0,0,0,0,0,0,0,0,0,0,0,0,0,0,0,0,0,0,0,0,0,0,0,0,0,0,0,0,0,0,0,0,0,0,0,0,0,0,0,0,0,0,0,0,0,0,0,0,0,0,0,0,0,0,0,0,0,0,0,0,0,0,0,0,0,0,0,0,0,0,0,0,0,0,0,0,0,0,0,0,0,0,0,0,0,0,0,0,0,0,0,0,0,0,0,0,0,0,0,0,0,0,0,0,0,0,0,0,0,0,0,0,0,0,0,0,0,0,0,0,0,0,0,0,0,0,0,0,0,0,0,0,0,0,0,0,0,0,0,0,0,0,0,0,0,0,0,0,0,0,0,0,0,0,0,0,0,0,0,0,0,0,0,0,0,0,0,0,0,0,0,0,0,0,0,0,0,0,0,0,0,0,0,0,0,0,0,0,0,0,0,0,0,0,0,0,0,0,0,0,0,0,0,0,0,0,0,0,0,0,0,0,0,0,0,0,0,0,0,0,0,0,0,0,0,0,0,0,0,0,0,0,0,0,0,0,0,0,0,0,0,0,0,0,0,0,0,0,0,0,0,0,0,0,0,0,0,0,0,0,0,0,0,0,0,0,0,0,0,0,0,0,0,0,0,0,0,0,0,0,0,0,0,0,0,0,0,0,0,0,0,0,0,0,0,0,0,0,0,0,0,0,0,0,0,0,0,0,0,0,0,0,0,0,0,0,0,0,0,0,0,0,0,0,0,0,0,0,0,0,0,0,0,0,0,0,0,0,0,0,0,0,0,0,0,0,0,0,0,0,0,0,0,0,0,0,0,0,0,0,0,0,0,0,0,0,0,0,0,0,0,0,0,0,0,0,0,0,0,0,0,0,0,0,0,0,0,0,0,0,0,0,0,0,0,0,0,0,0,0,0,0,0,0,0,0,0,0,0,0,0,0,0,0,0,0,0,0,0,0,0,0,0,0,0,0,0,0,0,0,0,0,0,0,0,0,0,0,0,0,0,0,0,0,0,0,0,0,0,0,0,0,0,0,0,0,0,0,0,0,0,0,0,0,0,0,0,0,0,0,0,0,0,0,0,0,0,0,0,0,0,0,0,0,0,0,0,0,0,0,0,0,0,0,0,0,0,0,0,0,0,0,0,0,0,0,0,0,0,0,0,0,0,0,0,0,0,0,0,0,0,0,0,0,0,0,0,0,0,0,0,0,0,0,0,0,0,0,0,0,0,0,0,0,0,0,0,0,0,0,0,0,0,0,0,0,0,0,0,0,0,0,0,0,0,0,0,0,0,0,0,0,0,0,0,0,0,0,0,0,0,0,0,0,0,0,0,0,0,0,0,0,0,0,0,0,0,0,0,0,0,0,0,0,0,0,0,0,0,0,0,0,0,0,0,0,0,0,0,0,0,0,0,0,0,0,0,0,0,0,0,0,0,0,0,0,0,0,0,0,0,0,0,0,0,0,0,0,0,0,0,0,0,0,0,0,0,0,0,0,0,0,0,0,0,0,0,0,0,0,0,0,0,0,0,0,0,0,0,0,0,0,0,0,0,0,0,0,0,0,0,0,0,0,0,0,0,0,0,0,0,0,0,0,0,0,0,0,0,0,0,0,0,0,0,0,0,0,0,0,0,0,0,0,0,0,0,0,0,0,0,0,0,0,0,0,0,0,0,0,0,0,0,0,0,0,0,0,0,0,0,0,0,0,0,0,0,0,0,0,0,0,0,0,0,0,0,0,0,0,0,0,0,0,0,0,0,0,0,0,0,0,0,0,0,0,0,0,0,0,0],"id":0,"left_children":[1,3,5,7,9,11,13,15,17,19,21,23,25,27,29,31,33,35,37,39,41,43,45,47,49,51,53,55,57,59,61,63,65,67,69,71,73,75,77,79,81,83,85,87,89,91,93,95,97,99,101,103,105,107,109,111,113,115,117,119,121,-1,123,125,127,129,131,133,135,137,139,141,143,-1,145,147,149,151,153,155,157,159,161,163,165,167,169,171,173,175,-1,177,179,-1,-1,181,183,185,187,189,191,193,195,197,199,201,203,205,207,209,211,213,215,217,219,221,223,225,227,229,231,233,235,237,239,241,243,245,247,249,251,253,255,257,259,261,263,265,267,269,271,273,275,277,279,281,283,285,287,289,291,293,295,297,299,301,303,305,307,309,311,313,315,317,319,321,323,325,327,329,331,333,-1,335,337,339,341,-1,-1,343,345,347,349,351,353,355,357,359,361,363,365,367,369,371,373,375,377,379,381,383,385,-1,387,389,391,393,395,397,399,401,403,405,407,409,411,413,415,417,419,421,423,425,427,429,431,433,435,-1,-1,437,439,441,443,445,447,449,451,453,455,457,459,461,463,465,467,469,471,473,475,477,479,481,483,485,487,489,491,493,495,497,499,501,503,505,507,509,511,513,515,517,519,521,523,525,527,-1,-1,529,531,533,535,537,539,541,543,545,547,549,551,553,555,557,559,561,563,565,567,569,-1,571,573,575,577,579,581,583,585,587,589,591,593,595,597,599,601,603,605,607,609,611,613,-1,615,617,619,621,623,625,-1,627,629,631,633,635,-1,-1,637,-1,639,641,643,-1,645,647,649,651,653,655,657,659,661,663,665,667,669,671,673,675,-1,-1,-1,677,679,-1,-1,681,683,685,687,689,691,693,695,697,699,701,703,705,707,709,-1,711,713,715,717,719,721,-1,723,725,-1,727,729,731,733,735,737,739,741,-1,743,745,747,749,751,-1,753,-1,-1,755,757,759,761,763,765,767,769,771,773,775,777,779,781,783,785,787,789,791,793,795,797,799,801,803,-1,-1,-1,805,807,809,811,813,815,-1,817,819,821,823,825,827,829,831,833,835,837,839,841,843,845,-1,-1,-1,-1,-1,-1,-1,-1,-1,-1,-1,-1,-1,-1,-1,-1,-1,-1,-1,-1,-1,-1,-1,-1,-1,-1,-1,-1,-1,-1,-1,-1,-1,-1,-1,-1,-1,-1,-1,-1,-1,-1,-1,-1,-1,-1,-1,-1,-1,-1,-1,-1,-1,-1,-1,-1,-1,-1,-1,-1,-1,-1,-1,-1,-1,-1,-1,-1,-1,-1,-1,-1,-1,-1,-1,-1,-1,-1,-1,-1,-1,-1,-1,-1,-1,-1,-1,-1,-1,-1,-1,-1,-1,-1,-1,-1,-1,-1,-1,-1,-1,-1,-1,-1,-1,-1,-1,-1,-1,-1,-1,-1,-1,-1,-1,-1,-1,-1,-1,-1,-1,-1,-1,-1,-1,-1,-1,-1,-1,-1,-1,-1,-1,-1,-1,-1,-1,-1,-1,-1,-1,-1,-1,-1,-1,-1,-1,-1,-1,-1,-1,-1,-1,-1,-1,-1,-1,-1,-1,-1,-1,-1,-1,-1,-1,-1,-1,-1,-1,-1,-1,-1,-1,-1,-1,-1,-1,-1,-1,-1,-1,-1,-1,-1,-1,-1,-1,-1,-1,-1,-1,-1,-1,-1,-1,-1,-1,-1,-1,-1,-1,-1,-1,-1,-1,-1,-1,-1,-1,-1,-1,-1,-1,-1,-1,-1,-1,-1,-1,-1,-1,-1,-1,-1,-1,-1,-1,-1,-1,-1,-1,-1,-1,-1,-1,-1,-1,-1,-1,-1,-1,-1,-1,-1,-1,-1,-1,-1,-1,-1,-1,-1,-1,-1,-1,-1,-1,-1,-1,-1,-1,-1,-1,-1,-1,-1,-1,-1,-1,-1,-1,-1,-1,-1,-1,-1,-1,-1,-1,-1,-1,-1,-1,-1,-1,-1,-1,-1,-1,-1,-1,-1,-1,-1,-1,-1,-1,-1,-1,-1,-1,-1,-1,-1,-1,-1,-1,-1,-1,-1,-1,-1,-1,-1,-1,-1,-1,-1,-1,-1,-1,-1,-1,-1,-1,-1,-1,-1,-1,-1,-1,-1,-1,-1,-1,-1,-1,-1,-1,-1,-1,-1,-1,-1,-1,-1,-1,-1,-1,-1,-1,-1,-1,-1,-1,-1,-1,-1,-1,-1,-1,-1,-1,-1,-1,-1,-1,-1,-1,-1,-1,-1,-1,-1,-1,-1,-1,-1,-1,-1,-1,-1,-1,-1,-1,-1,-1,-1],"loss_changes":[2.267081E5,1.4323675E5,8.066406E0,1.2572375E5,1.1003906E1,7.9384766E0,5.7148438E0,1.0054606E5,2.5066406E1,4.9375E0,5.127655E0,7.019043E0,1.0302734E1,5.890625E0,8.070801E0,8.3187125E4,7.663086E0,1.8200684E1,4.9472656E0,7.158203E0,7.220703E0,5.9136963E0,7.124901E0,7.3911743E0,5.3323975E0,6.4257812E0,6.2575684E0,5.0625E0,5.32959E0,8.900879E0,1.420459E1,6.553881E4,9.836914E0,5.5738525E0,6.4873047E0,1.454071E1,9.779663E0,5.932617E0,7.7788086E0,6.4941406E0,7.389282E0,7.9023438E0,6.9226074E0,6.540909E0,3.8820496E0,7.3277435E0,4.4440227E0,5.9627075E0,5.7644386E0,5.8769836E0,4.73584E0,6.0117188E0,6.666424E0,7.551758E0,6.118164E0,8.619141E0,8.506836E0,4.3398438E0,7.6375113E0,9.040527E0,6.107422E0,0E0,7.3444214E0,1.0319336E1,5.6808375E4,6.4907227E0,5.3654785E0,5.951416E0,5.6077576E0,9.093506E0,6.8632812E0,4.810074E0,1.4676468E1,0E0,4.406021E0,6.0966797E0,8.888184E0,6.3164062E0,7.6718254E0,4.354492E0,6.701832E0,1.1078613E1,5.8866577E0,5.3342285E0,5.663086E0,6.725178E0,6.95166E0,5.3971577E0,6.0136476E0,4.291382E0,0E0,1.9455668E0,6.680977E0,0E0,0E0,5.5095215E0,7.828491E0,5.0290165E0,5.020294E0,8.362549E0,9.050583E0,6.152954E0,5.184387E0,6.433563E0,6.3964844E0,6.92852E0,8.061384E0,5.895813E0,5.074463E0,4.4398193E0,7.9714403E0,1.1057617E1,1.1084961E1,6.155736E0,7.852539E0,6.704727E0,3.4032593E0,6.976227E0,8.399E-1,1.319635E1,5.827667E0,8.429932E0,9.040039E0,4.3412476E0,1.5793781E1,7.401367E0,8.346802E0,3.5128438E4,1.0661133E1,5.3687744E0,5.411133E0,6.755005E0,8.317627E0,4.2590637E0,7.7681274E0,7.5026493E0,4.496109E0,6.0163574E0,1.0547455E1,8.12793E0,5.779785E0,3.6577759E0,3.992241E0,2.0042488E1,6.08107E0,4.2651215E0,7.047638E0,7.218994E0,5.510742E0,5.858032E0,7.2026367E0,4.734131E0,7.889679E0,5.018467E0,7.2908716E0,4.86084E0,5.0163574E0,6.1087E0,5.6608973E0,5.369446E0,1.0404095E1,7.7074127E0,5.7426147E0,1.0341339E1,7.9283447E0,7.102051E0,4.9609375E0,6.0243683E0,6.7948284E0,6.609131E0,7.21134E0,8.404465E-1,0E0,6.4747906E0,6.455234E0,2.7713013E0,3.7288513E0,0E0,0E0,5.554342E0,5.2988815E0,3.6860352E0,9.210556E0,9.00584E0,5.4379745E0,9.763303E0,1.4697089E0,6.3956795E0,4.593071E0,1.5645442E0,6.802124E0,7.8193064E0,7.966095E0,8.361937E0,4.2856445E0,4.557831E0,4.077133E0,4.583542E0,5.640869E0,6.7246094E0,8.029037E0,0E0,5.5337105E0,7.1031685E0,6.7202024E0,1.3161373E1,6.6986084E0,4.507202E0,6.7449913E0,4.508545E0,5.2465973E0,6.2978363E0,1.5733624E0,5.041626E0,6.8359375E0,1.0699707E1,5.878418E0,7.9529095E0,5.8154535E0,4.604004E0,9.588379E0,1.0719896E1,7.7743645E0,5.2385864E0,7.401787E0,5.4285564E0,3.2334933E0,0E0,0E0,4.693451E0,7.5628357E0,6.31546E0,1.4594421E0,1.1543213E1,5.9645996E0,8.404257E0,7.8359375E0,8.181784E0,4.5789795E0,3.8608112E0,9.8317146E-1,4.6552734E0,8.583878E0,6.680542E0,5.579994E0,2.9175438E4,1.0705322E1,6.8276367E0,5.9746094E0,9.108568E0,4.762329E0,5.9316406E0,8.491211E0,6.7318726E0,5.7923584E0,6.9870605E0,9.966238E0,7.815842E0,5.0500183E0,6.841797E0,4.9415283E0,7.1855392E0,6.884907E0,3.6352997E0,5.759156E0,9.452721E0,4.6029053E0,9.965424E0,8.927E0,6.833496E0,5.5473633E0,6.0490723E0,4.7209473E0,4.347809E0,7.2638397E0,0E0,0E0,1.3893219E1,7.6070633E0,9.647888E0,2.5701866E0,3.132019E0,6.631546E0,4.9189796E0,6.6668034E0,8.402588E0,5.665146E0,9.178253E0,3.6826172E0,5.208679E0,4.706085E0,7.031616E0,6.8952637E0,7.187805E0,4.868408E0,7.7387695E0,6.1069794E0,3.4492378E0,0E0,5.485879E0,7.277796E0,5.0820312E0,6.4503174E0,6.310547E0,1.1183716E1,7.142703E0,5.082615E0,2.2583723E-1,8.381308E0,1.0464813E1,6.831993E0,6.482614E0,7.0933714E0,5.459069E0,2.6599274E0,5.8697205E0,9.244858E0,8.739655E0,7.1123643E0,6.993454E0,1.1173809E1,0E0,7.318718E0,5.9243164E0,5.1914062E0,4.821616E0,5.994961E0,1.9782629E0,0E0,6.1862793E0,9.630981E0,7.509392E0,4.903802E0,1.332222E0,0E0,0E0,2.669611E0,0E0,4.1628394E0,1.6991577E0,3.9944534E0,0E0,3.212967E0,7.142668E0,3.4625382E0,4.0110416E0,3.1795883E0,9.480934E0,3.460846E0,7.356991E0,4.9693027E0,6.4626656E0,5.383092E0,4.5107164E0,4.9111676E0,4.556267E0,6.2656565E0,2.7148948E0,0E0,0E0,0E0,3.9654388E0,3.156384E0,0E0,0E0,5.0711975E0,4.563656E0,4.82858E0,7.3332176E0,4.973053E0,5.372711E0,1.1716297E0,1.0395479E0,4.5220947E0,7.2263417E0,9.441624E0,4.9669495E0,4.0774307E0,3.478959E0,4.184738E0,0E0,1.0891052E1,1.1945633E1,5.0126953E0,6.777252E0,8.684637E0,5.265793E0,0E0,1.9826164E0,6.508068E0,0E0,8.405962E-1,5.885113E0,5.0194817E0,4.830203E0,8.257141E0,6.516815E0,4.477722E0,4.970048E0,0E0,4.7164993E0,3.9519653E0,5.8997784E0,7.2511597E0,8.194622E0,0E0,7.4627113E0,0E0,0E0,5.012329E0,7.222356E0,5.4970703E0,5.688843E0,5.3793945E0,6.544997E0,5.2563477E0,7.171936E0,2.3236632E0,4.368862E0,3.2887747E0,7.0089064E0,6.072693E0,5.5546875E0,6.5177E0,7.7148438E0,6.53918E0,3.709815E0,3.0915375E0,4.6135902E0,3.5639648E0,1.5090286E1,5.163864E0,6.827288E0,3.4711409E0,0E0,0E0,0E0,5.7335815E0,6.9753265E0,7.7130127E0,1.1154869E1,6.673126E0,9.179061E0,0E0,2.517395E0,8.091431E0,9.484198E0,2.2585594E1,5.3881836E0,3.075519E0,9.58165E0,1.3375275E1,8.126953E0,6.2069373E0,4.0064316E0,2.7351227E0,7.4223022E0,3.5656664E0,4.646202E0,0E0,0E0,0E0,0E0,0E0,0E0,0E0,0E0,0E0,0E0,0E0,0E0,0E0,0E0,0E0,0E0,0E0,0E0,0E0,0E0,0E0,0E0,0E0,0E0,0E0,0E0,0E0,0E0,0E0,0E0,0E0,0E0,0E0,0E0,0E0,0E0,0E0,0E0,0E0,0E0,0E0,0E0,0E0,0E0,0E0,0E0,0E0,0E0,0E0,0E0,0E0,0E0,0E0,0E0,0E0,0E0,0E0,0E0,0E0,0E0,0E0,0E0,0E0,0E0,0E0,0E0,0E0,0E0,0E0,0E0,0E0,0E0,0E0,0E0,0E0,0E0,0E0,0E0,0E0,0E0,0E0,0E0,0E0,0E0,0E0,0E0,0E0,0E0,0E0,0E0,0E0,0E0,0E0,0E0,0E0,0E0,0E0,0E0,0E0,0E0,0E0,0E0,0E0,0E0,0E0,0E0,0E0,0E0,0E0,0E0,0E0,0E0,0E0,0E0,0E0,0E0,0E0,0E0,0E0,0E0,0E0,0E0,0E0,0E0,0E0,0E0,0E0,0E0,0E0,0E0,0E0,0E0,0E0,0E0,0E0,0E0,0E0,0E0,0E0,0E0,0E0,0E0,0E0,0E0,0E0,0E0,0E0,0E0,0E0,0E0,0E0,0E0,0E0,0E0,0E0,0E0,0E0,0E0,0E0,0E0,0E0,0E0,0E0,0E0,0E0,0E0,0E0,0E0,0E0,0E0,0E0,0E0,0E0,0E0,0E0,0E0,0E0,0E0,0E0,0E0,0E0,0E0,0E0,0E0,0E0,0E0,0E0,0E0,0E0,0E0,0E0,0E0,0E0,0E0,0E0,0E0,0E0,0E0,0E0,0E0,0E0,0E0,0E0,0E0,0E0,0E0,0E0,0E0,0E0,0E0,0E0,0E0,0E0,0E0,0E0,0E0,0E0,0E0,0E0,0E0,0E0,0E0,0E0,0E0,0E0,0E0,0E0,0E0,0E0,0E0,0E0,0E0,0E0,0E0,0E0,0E0,0E0,0E0,0E0,0E0,0E0,0E0,0E0,0E0,0E0,0E0,0E0,0E0,0E0,0E0,0E0,0E0,0E0,0E0,0E0,0E0,0E0,0E0,0E0,0E0,0E0,0E0,0E0,0E0,0E0,0E0,0E0,0E0,0E0,0E0,0E0,0E0,0E0,0E0,0E0,0E0,0E0,0E0,0E0,0E0,0E0,0E0,0E0,0E0,0E0,0E0,0E0,0E0,0E0,0E0,0E0,0E0,0E0,0E0,0E0,0E0,0E0,0E0,0E0,0E0,0E0,0E0,0E0,0E0,0E0,0E0,0E0,0E0,0E0,0E0,0E0,0E0,0E0,0E0,0E0,0E0,0E0,0E0,0E0,0E0,0E0,0E0,0E0,0E0,0E0,0E0,0E0,0E0,0E0,0E0,0E0,0E0,0E0,0E0,0E0,0E0,0E0,0E0,0E0,0E0,0E0,0E0,0E0,0E0,0E0,0E0,0E0,0E0,0E0,0E0,0E0,0E0,0E0,0E0,0E0,0E0,0E0,0E0,0E0,0E0,0E0,0E0,0E0,0E0,0E0,0E0,0E0,0E0,0E0,0E0,0E0,0E0,0E0,0E0,0E0,0E0,0E0,0E0,0E0,0E0,0E0,0E0,0E0,0E0,0E0,0E0,0E0,0E0],"parents":[2147483647,0,0,1,1,2,2,3,3,4,4,5,5,6,6,7,7,8,8,9,9,10,10,11,11,12,12,13,13,14,14,15,15,16,16,17,17,18,18,19,19,20,20,21,21,22,22,23,23,24,24,25,25,26,26,27,27,28,28,29,29,30,30,31,31,32,32,33,33,34,34,35,35,36,36,37,37,38,38,39,39,40,40,41,41,42,42,43,43,44,44,45,45,46,46,47,47,48,48,49,49,50,50,51,51,52,52,53,53,54,54,55,55,56,56,57,57,58,58,59,59,60,60,62,62,63,63,64,64,65,65,66,66,67,67,68,68,69,69,70,70,71,71,72,72,74,74,75,75,76,76,77,77,78,78,79,79,80,80,81,81,82,82,83,83,84,84,85,85,86,86,87,87,88,88,89,89,91,91,92,92,95,95,96,96,97,97,98,98,99,99,100,100,101,101,102,102,103,103,104,104,105,105,106,106,107,107,108,108,109,109,110,110,111,111,112,112,113,113,114,114,115,115,116,116,117,117,118,118,119,119,120,120,121,121,122,122,123,123,124,124,125,125,126,126,127,127,128,128,129,129,130,130,131,131,132,132,133,133,134,134,135,135,136,136,137,137,138,138,139,139,140,140,141,141,142,142,143,143,144,144,145,145,146,146,147,147,148,148,149,149,150,150,151,151,152,152,153,153,154,154,155,155,156,156,157,157,158,158,159,159,160,160,161,161,162,162,163,163,164,164,165,165,166,166,167,167,168,168,169,169,170,170,171,171,173,173,174,174,175,175,176,176,179,179,180,180,181,181,182,182,183,183,184,184,185,185,186,186,187,187,188,188,189,189,190,190,191,191,192,192,193,193,194,194,195,195,196,196,197,197,198,198,199,199,200,200,202,202,203,203,204,204,205,205,206,206,207,207,208,208,209,209,210,210,211,211,212,212,213,213,214,214,215,215,216,216,217,217,218,218,219,219,220,220,221,221,222,222,223,223,224,224,225,225,226,226,229,229,230,230,231,231,232,232,233,233,234,234,235,235,236,236,237,237,238,238,239,239,240,240,241,241,242,242,243,243,244,244,245,245,246,246,247,247,248,248,249,249,250,250,251,251,252,252,253,253,254,254,255,255,256,256,257,257,258,258,259,259,260,260,261,261,262,262,263,263,264,264,265,265,266,266,267,267,268,268,269,269,270,270,271,271,272,272,273,273,274,274,277,277,278,278,279,279,280,280,281,281,282,282,283,283,284,284,285,285,286,286,287,287,288,288,289,289,290,290,291,291,292,292,293,293,294,294,295,295,296,296,297,297,299,299,300,300,301,301,302,302,303,303,304,304,305,305,306,306,307,307,308,308,309,309,310,310,311,311,312,312,313,313,314,314,315,315,316,316,317,317,318,318,319,319,320,320,322,322,323,323,324,324,325,325,326,326,327,327,329,329,330,330,331,331,332,332,333,333,336,336,338,338,339,339,340,340,342,342,343,343,344,344,345,345,346,346,347,347,348,348,349,349,350,350,351,351,352,352,353,353,354,354,355,355,356,356,357,357,361,361,362,362,365,365,366,366,367,367,368,368,369,369,370,370,371,371,372,372,373,373,374,374,375,375,376,376,377,377,378,378,379,379,381,381,382,382,383,383,384,384,385,385,386,386,388,388,389,389,391,391,392,392,393,393,394,394,395,395,396,396,397,397,398,398,400,400,401,401,402,402,403,403,404,404,406,406,409,409,410,410,411,411,412,412,413,413,414,414,415,415,416,416,417,417,418,418,419,419,420,420,421,421,422,422,423,423,424,424,425,425,426,426,427,427,428,428,429,429,430,430,431,431,432,432,433,433,437,437,438,438,439,439,440,440,441,441,442,442,444,444,445,445,446,446,447,447,448,448,449,449,450,450,451,451,452,452,453,453,454,454,455,455,456,456,457,457,458,458],"right_children":[2,4,6,8,10,12,14,16,18,20,22,24,26,28,30,32,34,36,38,40,42,44,46,48,50,52,54,56,58,60,62,64,66,68,70,72,74,76,78,80,82,84,86,88,90,92,94,96,98,100,102,104,106,108,110,112,114,116,118,120,122,-1,124,126,128,130,132,134,136,138,140,142,144,-1,146,148,150,152,154,156,158,160,162,164,166,168,170,172,174,176,-1,178,180,-1,-1,182,184,186,188,190,192,194,196,198,200,202,204,206,208,210,212,214,216,218,220,222,224,226,228,230,232,234,236,238,240,242,244,246,248,250,252,254,256,258,260,262,264,266,268,270,272,274,276,278,280,282,284,286,288,290,292,294,296,298,300,302,304,306,308,310,312,314,316,318,320,322,324,326,328,330,332,334,-1,336,338,340,342,-1,-1,344,346,348,350,352,354,356,358,360,362,364,366,368,370,372,374,376,378,380,382,384,386,-1,388,390,392,394,396,398,400,402,404,406,408,410,412,414,416,418,420,422,424,426,428,430,432,434,436,-1,-1,438,440,442,444,446,448,450,452,454,456,458,460,462,464,466,468,470,472,474,476,478,480,482,484,486,488,490,492,494,496,498,500,502,504,506,508,510,512,514,516,518,520,522,524,526,528,-1,-1,530,532,534,536,538,540,542,544,546,548,550,552,554,556,558,560,562,564,566,568,570,-1,572,574,576,578,580,582,584,586,588,590,592,594,596,598,600,602,604,606,608,610,612,614,-1,616,618,620,622,624,626,-1,628,630,632,634,636,-1,-1,638,-1,640,642,644,-1,646,648,650,652,654,656,658,660,662,664,666,668,670,672,674,676,-1,-1,-1,678,680,-1,-1,682,684,686,688,690,692,694,696,698,700,702,704,706,708,710,-1,712,714,716,718,720,722,-1,724,726,-1,728,730,732,734,736,738,740,742,-1,744,746,748,750,752,-1,754,-1,-1,756,758,760,762,764,766,768,770,772,774,776,778,780,782,784,786,788,790,792,794,796,798,800,802,804,-1,-1,-1,806,808,810,812,814,816,-1,818,820,822,824,826,828,830,832,834,836,838,840,842,844,846,-1,-1,-1,-1,-1,-1,-1,-1,-1,-1,-1,-1,-1,-1,-1,-1,-1,-1,-1,-1,-1,-1,-1,-1,-1,-1,-1,-1,-1,-1,-1,-1,-1,-1,-1,-1,-1,-1,-1,-1,-1,-1,-1,-1,-1,-1,-1,-1,-1,-1,-1,-1,-1,-1,-1,-1,-1,-1,-1,-1,-1,-1,-1,-1,-1,-1,-1,-1,-1,-1,-1,-1,-1,-1,-1,-1,-1,-1,-1,-1,-1,-1,-1,-1,-1,-1,-1,-1,-1,-1,-1,-1,-1,-1,-1,-1,-1,-1,-1,-1,-1,-1,-1,-1,-1,-1,-1,-1,-1,-1,-1,-1,-1,-1,-1,-1,-1,-1,-1,-1,-1,-1,-1,-1,-1,-1,-1,-1,-1,-1,-1,-1,-1,-1,-1,-1,-1,-1,-1,-1,-1,-1,-1,-1,-1,-1,-1,-1,-1,-1,-1,-1,-1,-1,-1,-1,-1,-1,-1,-1,-1,-1,-1,-1,-1,-1,-1,-1,-1,-1,-1,-1,-1,-1,-1,-1,-1,-1,-1,-1,-1,-1,-1,-1,-1,-1,-1,-1,-1,-1,-1,-1,-1,-1,-1,-1,-1,-1,-1,-1,-1,-1,-1,-1,-1,-1,-1,-1,-1,-1,-1,-1,-1,-1,-1,-1,-1,-1,-1,-1,-1,-1,-1,-1,-1,-1,-1,-1,-1,-1,-1,-1,-1,-1,-1,-1,-1,-1,-1,-1,-1,-1,-1,-1,-1,-1,-1,-1,-1,-1,-1,-1,-1,-1,-1,-1,-1,-1,-1,-1,-1,-1,-1,-1,-1,-1,-1,-1,-1,-1,-1,-1,-1,-1,-1,-1,-1,-1,-1,-1,-1,-1,-1,-1,-1,-1,-1,-1,-1,-1,-1,-1,-1,-1,-1,-1,-1,-1,-1,-1,-1,-1,-1,-1,-1,-1,-1,-1,-1,-1,-1,-1,-1,-1,-1,-1,-1,-1,-1,-1,-1,-1,-1,-1,-1,-1,-1,-1,-1,-1,-1,-1,-1,-1,-1,-1,-1,-1,-1,-1,-1,-1,-1,-1,-1,-1,-1,-1,-1,-1,-1,-1,-1,-1,-1,-1,-1,-1,-1,-1,-1,-1,-1,-1,-1,-1,-1,-1,-1,-1,-1,-1,-1,-1,-1,-1,-1,-1,-1,-1,-1,-1,-1,-1,-1,-1,-1,-1],"split_conditions":[5.126674E-2,1.1042922E0,1.4544704E2,2.5064275E2,4.686105E-2,8.5220195E-2,5.850134E2,1.0641917E0,2.5350836E2,7.0382195E0,3.8572328E0,6.902135E-1,1.1674609E0,5.6919916E2,3.742488E2,3.1938462E0,2.4856671E-3,1.0439891E0,5.7173444E2,8.2273575E1,2.0267812E2,2.5123348E0,3.4553525E2,3.534633E0,1.1474881E0,1.0370177E2,2.23E-43,3.807818E0,4.4029376E2,1.162972E2,1.7940981E0,6.472698E0,1.5123774E0,2.063674E2,8.837911E-8,6.7222176E0,1.1338163E2,1.399717E0,1.0298762E0,4.345497E-2,6.0882096E0,7.776227E-2,7.0559335E0,3.5859372E2,6.822935E-2,9.580056E1,1.4744584E1,8.814888E0,4.14684E1,1.8026767E0,1.6883759E1,7.0686736E0,3.740418E2,2.0845891E2,6.822935E-2,6.689638E1,1.475321E2,2.3636718E0,9.258084E-2,5.001811E2,1.5288931E2,-9.648271E-7,8.777346E1,1E0,8.524047E0,6.0882096E0,2.5244465E-1,2.1268042E-7,2.1848143E2,1.6528078E0,2.1994212E2,5.311286E0,4.094078E0,-6.8912226E-7,3.2677314E-1,6.9802315E1,8.885139E1,1E0,5.943325E-1,1.9907775E0,4.015878E0,3.1788748E2,4.949847E-2,1.1445841E0,5.031471E0,3.3087718E0,9.57446E-3,1.6020788E0,7.533557E0,1.5910097E1,-0E0,8.52776E-1,8.281846E-2,6.9786927E-7,-9.648271E-7,1E0,1.595857E0,2.1305356E0,2.0246323E-2,5.1362247E1,1.968915E0,3.5008054E-2,8.109118E2,1.1532288E0,6.651258E0,6.647311E-2,3.3389158E0,1.413405E2,2.6733722E2,1E0,4.459674E0,5.023338E-2,6.924703E1,4.459674E0,1.7067234E1,3.7942073E-4,1.7260597E0,6.7854935E1,5.9103237E1,4.0575665E-1,1.5910097E1,8.3737816E1,1.2027824E2,3.281871E1,1.9797647E0,4.9615054E0,2.4457713E2,3.180092E-1,6.614378E1,1.3557149E2,2.9455116E1,6.3080026E-17,1.010397E0,2.5312074E-18,7.6704407E0,6.9016335E-4,1.2767463E-4,5.3747244E0,8.761452E0,6.2236696E-2,9.106101E-3,3.481959E0,4.5649496E-1,3.5177162E-1,5.0234933E2,5.6849274E2,1E0,1.7234301E-2,1.1338163E2,3.902123E2,8.166583E-3,1.939576E-3,3.40638E2,8.783195E2,9.766275E0,1.1685324E0,6.54169E-1,2.7282734E0,1.0803576E1,2.7906265E1,1.0559427E0,1.1377842E2,2.480446E2,7.6523724E2,1.9830875E2,6.1561897E-2,5.3666252E1,2.216754E0,3.162481E-3,2.5078979E0,4.6460757E0,3.3017836E0,-0E0,9.757532E1,2.5454947E-1,1.4607435E0,9.1316284E1,3.488461E-7,-8.0134663E-7,2.0789087E0,5.6962326E1,5.6566267E0,1.6828578E0,3.4496995E-26,1E0,5.383872E-1,6.230675E1,6.2487087E1,3.6406094E1,3.7480316E-1,5.971935E-1,1.9980049E-4,8.5083246E-1,8.714202E1,6.308017E0,5.3747244E0,4.7396536E0,6.822935E-2,3.2698028E-2,1.01559985E3,7.539428E-1,-4.1341738E-7,7.400262E-2,1.03809784E2,3.1051392E1,1.0294462E0,8.9197546E-1,4.4502457E1,2.632629E1,7.091791E1,1.2029965E0,2.1025865E-1,7.7227E0,4.1103763E2,1.806025E0,5.7134987E1,3.7243204E0,3.8983936E0,4.6316447E0,6.974637E-3,1.9695515E1,1.9378612E2,1.0290428E0,2.4156446E0,1E0,3.0261376E0,2.2493798E-1,1.480045E-6,4.807429E-7,3.2167432E0,7.2207306E1,1.9907775E0,3.0275828E-1,9.276374E1,1.7672176E2,6.4435613E-1,3.087734E-10,1.0957798E1,4.584268E-6,1.3476077E0,2.541008E-1,2.5312074E-18,6.403078E-1,8.290643E0,4.552461E-1,4.2015214E0,5.4377234E-1,8.250527E2,2.9627027E-4,1.8184175E-1,1.3283388E-3,3.5839538E-8,3.5008054E-2,1.0107785E-1,4.367555E1,1.9538611E2,1.5908429E2,8.062045E-1,4.4216383E-2,3.5518576E2,5.058073E-6,3.485674E1,3.0917102E2,3.9019675E2,1.3338782E0,7.776227E-2,4.9469303E1,6.88875E2,2.1305356E0,3.7291485E1,5.2815255E-7,7.5044655E1,8.524047E0,1E0,1.32521195E-2,1.8041954E-6,2.9631357E-7,3.3832347E0,7.644549E0,4.39699E2,1E0,3.1051392E1,7.644549E0,3.4417772E-1,3.345468E0,4.493389E-2,2.0799955E-2,5.873447E-1,1.7046747E2,2.4881403E0,6.9437175E0,2.6925623E-3,3.8757536E0,2.4838593E1,3.198165E0,1.088451E0,7.4453125E0,1E0,-1.2079575E-7,2.1934972E0,3.195388E0,7.948675E-1,4.949847E-2,6.4355817E0,3.274159E-1,2.1131163E2,1.5762091E-27,2.1801044E2,6.8249374E1,2.4659876E1,3.1771423E2,4.0338188E-1,5.072666E2,1.14774124E2,2.531846E0,3.3644675E2,2.009128E0,7.973285E-2,2.009128E0,1E0,2.4352495E-3,1.7402147E-6,8.109118E2,4.9180253E-3,8.7378985E-1,1.6631178E2,3.8259869E0,9.0527016E-1,8.463063E-7,4.396939E-1,4.5199245E-1,1.374904E0,1.0437123E0,3.2284158E2,5.9277755E-7,-4.1341738E-7,1.5205199E2,9.1125474E-7,1.5958195E0,2.7763023E0,5.480339E2,-0E0,5.5327216E2,4.6316447E0,2.8242648E2,2.5049823E-7,6.6352455E1,3.0389163E0,1.1450608E-5,5.269787E-1,4.081328E0,2.882749E0,4.5687422E-1,1.172528E1,8.90088E-2,2.8975897E1,1E0,4.522402E1,1.36694E-6,7.728574E-7,-1.03052E-6,8.357078E0,3.4155197E2,3.488461E-7,-6.9786927E-7,6.079364E0,1.3233391E2,1.3832454E2,8.90088E-2,3.2472202E2,3.820861E-3,7.68769E0,1.4211174E-2,7.954444E-2,4.091178E-1,1E0,3.0883474E-3,1.1519591E0,1.6545815E2,3.9515244E-16,-3.488461E-7,8.469353E0,1.3476077E0,2.6444488E0,3.481515E1,1.1161598E0,3.4553525E2,-3.488461E-7,1.2559902E1,1.3710375E-1,1.6135494E-6,7.177666E0,3.5773726E0,8.503034E1,1.4151001E2,1.0098881E2,5.2170765E-2,7.1437344E-2,7.7578726E0,-6.8912226E-7,2.1540298E0,8.567357E1,6.403078E-1,2.489253E1,3.6979797E1,-4.5556962E-7,1E0,-0E0,-1.1219504E-6,2.8901823E0,1E0,1E0,5.732253E0,1.6537979E-1,3.771733E-33,7.0643197E-3,2.5633884E2,1.5669563E-1,1E0,2.1954282E2,7.0897255E1,1.1711192E2,2.259936E0,2.1934972E0,2.0152617E1,7.117045E0,2.5455072E0,4.867799E-4,2.2631028E0,1.5264477E0,8.260628E0,7.994895E0,1.5526108E0,9.602578E1,6.9786927E-7,-0E0,1.4821693E-6,9.264282E-3,3.3242996E0,6.9396353E0,1.833601E-1,5.745358E1,1.3791858E1,1.7647053E-6,5.4443175E-1,1.624746E1,5.102956E-1,2.2186433E2,3.1965775E1,1.017471E0,1.209016E0,6.1859917E-3,1.4961478E2,4.4029376E2,5.461192E-1,2.930601E0,3.902123E2,3.1524613E-1,3.771733E-33,-3.488461E-7,-1.4425541E-6,6.350961E-7,9.0437777E-7,2.3334914E-8,7.883622E-7,1.287344E-6,7.988558E-7,5.911482E-7,1.405474E-6,-1.8284828E-6,8.1319547E-7,9.215581E-7,8.0243007E-7,8.799355E-7,6.7672687E-7,9.0469E-7,9.991925E-7,9.954956E-7,-1.0490324E-7,8.9836703E-7,1.0305345E-6,8.4126805E-7,9.5105696E-7,3.4308715E-7,9.3761463E-7,-6.793914E-7,9.690978E-7,8.114412E-7,1.0813371E-6,8.5296176E-7,9.566905E-7,9.742633E-7,2.1691402E-7,-4.8525146E-7,1.0560784E-6,1.0543987E-6,1.3760022E-6,7.4435104E-7,9.818656E-7,1.1085128E-6,5.887459E-7,9.988786E-7,-5.9277755E-7,-7.7863984E-7,4.2014628E-7,8.452904E-7,1.1037009E-6,-7.728574E-7,7.150852E-7,-2.2772701E-7,1.3841509E-6,5.0152096E-7,9.876159E-7,9.4505225E-7,4.4960262E-7,-2.001089E-8,7.23609E-7,1.0190172E-6,8.247019E-7,7.635464E-7,9.038067E-7,1.3733277E-6,9.090365E-7,1.0844444E-6,8.122673E-7,7.851324E-7,1.748624E-7,-1.849235E-7,1.0676605E-6,3.3283348E-7,8.3944894E-7,5.825288E-7,1.2737803E-6,9.23817E-7,-0E0,1.4051451E-6,3.626326E-7,4.0531265E-7,1.2681546E-6,1.1583526E-6,1.88241E-7,-2.9631357E-7,1.032018E-6,-1.0490324E-7,1.32998E-6,2.509656E-7,9.0024395E-7,1.4002981E-7,7.309534E-7,7.8532946E-7,7.175489E-8,8.618386E-7,9.0280383E-7,1.0955313E-6,9.2748525E-7,1.3963847E-7,8.593872E-7,8.85494E-7,7.275025E-7,9.574052E-7,7.3242336E-7,7.439087E-7,1.1051081E-6,9.670578E-7,6.964616E-7,8.713661E-7,5.8890066E-7,1.0374775E-6,-2.2772701E-7,1.2845346E-6,3.7446827E-7,-8.6588335E-7,5.3833907E-7,6.710883E-7,-6.8341217E-7,9.706287E-7,8.994996E-7,4.830929E-7,8.4661286E-7,8.953597E-7,9.890304E-7,1.267418E-6,9.1163685E-7,6.641541E-7,-5.0341913E-7,7.0420765E-7,1.3328702E-6,3.488461E-7,1.0468924E-6,-1.2950276E-6,6.0446945E-7,7.8589954E-7,1.650295E-7,5.808849E-7,1.257358E-6,5.488101E-7,-5.266621E-7,9.811147E-7,-1.18246646E-7,-4.8525146E-7,8.4511265E-7,1.4001619E-6,9.678541E-7,7.063191E-7,9.023111E-7,1.1900737E-6,1.0555963E-7,-1.9497527E-7,9.106977E-7,5.887522E-8,1.3998564E-6,9.3106144E-7,4.4660138E-7,7.137355E-7,1.7792667E-7,6.6273503E-7,1.4887742E-6,1.1291734E-6,8.7190136E-7,9.4848144E-7,8.97319E-7,1.1100102E-6,2.8802877E-8,1.3532325E-6,-3.488461E-7,-1.3959154E-6,-3.1140854E-7,9.346026E-7,8.4000044E-7,1.0234371E-6,7.8034054E-7,2.1227576E-7,8.6012994E-7,-1.2405319E-6,3.626326E-7,1.6835675E-6,5.9277755E-7,2.5753198E-7,1.4032518E-6,-1.1100102E-6,2.2772701E-7,9.777527E-7,1.6065317E-6,1.1960365E-6,-0E0,1.1468993E-6,2.6498074E-7,4.0531265E-7,-1.4425541E-6,1.5718169E-6,3.1140854E-7,-0E0,9.07825E-7,4.416943E-7,1.3900531E-6,7.420518E-7,-8.463063E-7,9.4388116E-7,5.2614473E-7,4.9122605E-7,1.1687202E-6,3.6185472E-7,-6.264321E-7,2.870807E-7,1.3463354E-6,4.6715232E-7,-1.1219504E-6,-9.5331266E-8,6.845485E-7,-7.551606E-7,5.3833907E-7,9.783225E-7,-2.0410528E-7,-6.4312025E-7,7.728574E-7,1.0468924E-6,-3.488461E-7,2.7403584E-7,9.1387335E-7,-8.0134663E-7,4.416943E-7,1.2079575E-7,1.4030599E-6,1.4989245E-6,7.7135775E-7,-1.32998E-6,2.5753198E-7,1.4016149E-6,-1.6903738E-7,7.9310115E-7,-0E0,4.000849E-7,1.1865815E-6,-9.1125474E-7,-0E0,4.1341738E-7,1.4425541E-6,7.1858045E-7,9.871219E-7,1.3959154E-6,-5.549582E-7,6.4518264E-7,-8.735314E-7,8.2187034E-7,2.4122627E-7,1.6213464E-6,5.072837E-7,-4.807429E-7,1.0468924E-6,-1.3771256E-7,1.0472838E-6,7.9304596E-7,3.0910027E-7,-4.073419E-8,1.0050451E-6,9.121421E-7,9.74276E-7,-4.8525146E-7,7.2346336E-7,8.163712E-7,-2.085988E-8,9.06109E-7,1.0555963E-7,7.3305665E-7,1.4116326E-6,-3.4798643E-7,8.846289E-7,3.488461E-7,1.3959154E-6,-1.32998E-6,-0E0,-1.0441006E-6,3.626326E-7,3.147807E-7,1.198404E-6,8.59714E-7,-1.0555963E-7,-6.0446945E-7,6.8588525E-7,6.8033484E-7,9.860553E-7,1.7046696E-7,9.981048E-7,8.8403095E-7,3.586758E-7,1.0060561E-6,7.409844E-7,-8.892415E-7,1.0468924E-6,1.3341325E-6,8.1147135E-7,-6.184079E-7,6.585756E-7,1.1396122E-6,-3.2295978E-7,1.123067E-6,9.433425E-7,7.5628606E-7,-6.8341217E-7,8.6561636E-7,9.126034E-7,6.692176E-7,1.0098588E-6,9.149515E-7,1.0611702E-6,-1.9572855E-7,1.1100102E-6,5.9393517E-7,9.01566E-7,8.120086E-7,1.0412964E-6,-8.892415E-7,2.9631357E-7,1.105546E-6,-0E0,1.6013922E-7,-1.2881827E-6,6.442395E-7,-6.793914E-7,6.388024E-7,9.672602E-7,8.515352E-7,7.5554743E-7,1.0150113E-6,7.961907E-7,6.745692E-7,8.8839636E-7,-9.737391E-7,2.8609057E-7,1.3030159E-6,1.849235E-7,-0E0,1.120717E-6,4.6715232E-7,-1.0468924E-6,1.0321365E-6,1.2451916E-6,7.005214E-8,9.700541E-7,7.799436E-7,1.2516051E-6,6.391299E-7,-6.228961E-7,-0E0,-1.4293585E-6,6.251224E-7,1.2845802E-6,4.1550138E-7,1.0426156E-6,6.872476E-7,1.0204783E-6,1.4802727E-7,8.211608E-7,-2.9631357E-7,1.2594668E-6,8.86385E-7,-4.3290507E-7,8.24819E-7,1.4008875E-6,-6.09239E-8,9.755693E-7,5.5551478E-8,1.0683339E-6,9.140693E-7,2.8976896E-7,8.4619825E-7,9.827585E-7,-8.167319E-7,1.9497527E-7,1.5560161E-6,5.2295695E-7,-8.892415E-7,1.1869384E-6,3.8231602E-7,9.3542326E-7,-7.951215E-7,7.5371844E-7,1.3283418E-6,4.2239924E-7,1.5546758E-6,1.0330747E-6,1.378825E-6,9.88025E-7,-5.9277755E-7,7.5371844E-7,1.5841445E-6,3.3816053E-7],"split_indices":[13,6,14,3,13,8,11,8,3,0,12,5,8,14,3,9,6,8,11,16,10,12,10,9,5,16,4,12,3,3,12,0,7,10,1,0,11,7,6,13,0,5,0,11,4,3,15,0,14,9,15,15,11,3,4,16,14,12,1,14,10,0,16,20,0,0,5,13,10,7,10,5,12,0,6,10,10,24,7,5,5,3,8,7,15,6,4,8,0,15,0,8,8,0,0,22,9,7,5,10,9,7,11,9,5,5,12,11,10,19,12,5,16,12,15,1,6,16,16,8,15,10,3,16,7,7,3,1,16,11,15,13,8,13,0,13,4,0,0,6,13,12,6,1,11,11,20,1,11,3,1,6,3,11,15,1,1,12,15,15,5,3,10,11,3,7,16,9,13,6,5,5,0,14,8,7,3,0,0,9,16,0,7,4,17,7,16,16,15,6,6,1,5,14,6,0,5,4,1,11,9,0,7,14,14,9,13,15,16,15,6,5,0,3,1,15,9,12,12,6,15,3,1,5,28,9,13,0,0,12,16,5,7,16,14,9,1,15,1,9,6,13,5,14,7,12,6,11,13,6,13,4,7,5,16,14,3,5,1,11,4,15,11,14,8,5,10,11,7,14,1,3,0,22,8,0,0,9,0,11,25,14,0,6,9,5,1,1,14,7,15,1,9,15,8,7,5,17,0,7,7,9,8,0,8,3,4,3,16,15,11,7,11,10,9,11,8,9,8,20,13,0,11,8,5,14,5,9,0,8,9,9,7,11,0,0,3,0,5,12,14,0,14,12,14,1,14,7,4,6,12,12,5,15,1,14,23,16,0,0,0,15,11,0,0,15,3,10,1,3,6,0,1,13,7,21,4,6,3,1,0,0,9,12,16,7,10,0,15,6,0,0,12,14,10,16,9,13,0,0,5,16,5,14,16,0,28,0,0,12,18,18,0,13,4,5,11,6,22,3,16,3,7,7,15,0,9,6,12,5,15,0,7,10,0,0,0,6,12,0,13,10,15,0,7,16,13,3,15,5,9,8,14,3,8,9,3,8,4,0,0,0,0,0,0,0,0,0,0,0,0,0,0,0,0,0,0,0,0,0,0,0,0,0,0,0,0,0,0,0,0,0,0,0,0,0,0,0,0,0,0,0,0,0,0,0,0,0,0,0,0,0,0,0,0,0,0,0,0,0,0,0,0,0,0,0,0,0,0,0,0,0,0,0,0,0,0,0,0,0,0,0,0,0,0,0,0,0,0,0,0,0,0,0,0,0,0,0,0,0,0,0,0,0,0,0,0,0,0,0,0,0,0,0,0,0,0,0,0,0,0,0,0,0,0,0,0,0,0,0,0,0,0,0,0,0,0,0,0,0,0,0,0,0,0,0,0,0,0,0,0,0,0,0,0,0,0,0,0,0,0,0,0,0,0,0,0,0,0,0,0,0,0,0,0,0,0,0,0,0,0,0,0,0,0,0,0,0,0,0,0,0,0,0,0,0,0,0,0,0,0,0,0,0,0,0,0,0,0,0,0,0,0,0,0,0,0,0,0,0,0,0,0,0,0,0,0,0,0,0,0,0,0,0,0,0,0,0,0,0,0,0,0,0,0,0,0,0,0,0,0,0,0,0,0,0,0,0,0,0,0,0,0,0,0,0,0,0,0,0,0,0,0,0,0,0,0,0,0,0,0,0,0,0,0,0,0,0,0,0,0,0,0,0,0,0,0,0,0,0,0,0,0,0,0,0,0,0,0,0,0,0,0,0,0,0,0,0,0,0,0,0,0,0,0,0,0,0,0,0,0,0,0,0,0,0,0,0,0,0,0,0,0,0,0,0,0,0,0,0,0,0,0,0,0,0,0,0,0,0,0,0,0,0,0,0,0,0,0,0,0,0,0,0,0,0,0,0,0,0,0,0,0,0,0,0,0],"split_type":[0,0,0,0,0,0,0,0,0,0,0,0,0,0,0,0,0,0,0,0,0,0,0,0,0,0,0,0,0,0,0,0,0,0,0,0,0,0,0,0,0,0,0,0,0,0,0,0,0,0,0,0,0,0,0,0,0,0,0,0,0,0,0,0,0,0,0,0,0,0,0,0,0,0,0,0,0,0,0,0,0,0,0,0,0,0,0,0,0,0,0,0,0,0,0,0,0,0,0,0,0,0,0,0,0,0,0,0,0,0,0,0,0,0,0,0,0,0,0,0,0,0,0,0,0,0,0,0,0,0,0,0,0,0,0,0,0,0,0,0,0,0,0,0,0,0,0,0,0,0,0,0,0,0,0,0,0,0,0,0,0,0,0,0,0,0,0,0,0,0,0,0,0,0,0,0,0,0,0,0,0,0,0,0,0,0,0,0,0,0,0,0,0,0,0,0,0,0,0,0,0,0,0,0,0,0,0,0,0,0,0,0,0,0,0,0,0,0,0,0,0,0,0,0,0,0,0,0,0,0,0,0,0,0,0,0,0,0,0,0,0,0,0,0,0,0,0,0,0,0,0,0,0,0,0,0,0,0,0,0,0,0,0,0,0,0,0,0,0,0,0,0,0,0,0,0,0,0,0,0,0,0,0,0,0,0,0,0,0,0,0,0,0,0,0,0,0,0,0,0,0,0,0,0,0,0,0,0,0,0,0,0,0,0,0,0,0,0,0,0,0,0,0,0,0,0,0,0,0,0,0,0,0,0,0,0,0,0,0,0,0,0,0,0,0,0,0,0,0,0,0,0,0,0,0,0,0,0,0,0,0,0,0,0,0,0,0,0,0,0,0,0,0,0,0,0,0,0,0,0,0,0,0,0,0,0,0,0,0,0,0,0,0,0,0,0,0,0,0,0,0,0,0,0,0,0,0,0,0,0,0,0,0,0,0,0,0,0,0,0,0,0,0,0,0,0,0,0,0,0,0,0,0,0,0,0,0,0,0,0,0,0,0,0,0,0,0,0,0,0,0,0,0,0,0,0,0,0,0,0,0,0,0,0,0,0,0,0,0,0,0,0,0,0,0,0,0,0,0,0,0,0,0,0,0,0,0,0,0,0,0,0,0,0,0,0,0,0,0,0,0,0,0,0,0,0,0,0,0,0,0,0,0,0,0,0,0,0,0,0,0,0,0,0,0,0,0,0,0,0,0,0,0,0,0,0,0,0,0,0,0,0,0,0,0,0,0,0,0,0,0,0,0,0,0,0,0,0,0,0,0,0,0,0,0,0,0,0,0,0,0,0,0,0,0,0,0,0,0,0,0,0,0,0,0,0,0,0,0,0,0,0,0,0,0,0,0,0,0,0,0,0,0,0,0,0,0,0,0,0,0,0,0,0,0,0,0,0,0,0,0,0,0,0,0,0,0,0,0,0,0,0,0,0,0,0,0,0,0,0,0,0,0,0,0,0,0,0,0,0,0,0,0,0,0,0,0,0,0,0,0,0,0,0,0,0,0,0,0,0,0,0,0,0,0,0,0,0,0,0,0,0,0,0,0,0,0,0,0,0,0,0,0,0,0,0,0,0,0,0,0,0,0,0,0,0,0,0,0,0,0,0,0,0,0,0,0,0,0,0,0,0,0,0,0,0,0,0,0,0,0,0,0,0,0,0,0,0,0,0,0,0,0,0,0,0,0,0,0,0,0,0,0,0,0,0,0,0,0,0,0,0,0,0,0,0,0,0,0,0,0,0,0,0,0,0,0,0,0,0,0,0,0,0,0,0,0,0,0,0,0,0,0,0,0,0,0,0,0,0,0,0,0,0,0,0,0,0,0,0,0,0,0,0,0,0,0,0,0,0,0,0,0,0,0,0,0,0,0,0,0,0,0,0,0,0,0,0,0,0,0,0,0,0,0,0,0],"sum_hessian":[4.761195E5,4.0902775E5,6.709175E4,3.753225E5,3.370525E4,1.67985E4,5.029325E4,3.5000275E5,2.531975E4,3.33315E4,3.7375E2,2.628E3,1.41705E4,4.1015E4,9.27825E3,3.322675E5,1.773525E4,9.87E2,2.433275E4,1.272725E4,2.060425E4,2.615E2,1.1225E2,9.21E2,1.707E3,1.085575E4,3.31475E3,3.999225E4,1.02275E3,8.83925E3,4.39E2,3.1869825E5,1.356925E4,1.52925E3,1.6206E4,7.7625E2,2.1075E2,1.949175E4,4.841E3,1.133675E4,1.3905E3,1.57685E4,4.83575E3,4.6E1,2.155E2,1.075E2,4.75E0,7.8225E2,1.3875E2,3.9175E2,1.31525E3,1.077675E4,7.9E1,2.048E3,1.26675E3,2.826275E4,1.17295E4,1.0025E3,2.025E1,1.00325E3,7.836E3,2.75E0,4.3625E2,9.98025E3,3.08718E5,9.75225E3,3.817E3,1.1855E3,3.4375E2,2.001E3,1.4205E4,2.2025E2,5.56E2,2.75E0,2.08E2,1.33935E4,6.09825E3,4.7415E3,9.95E1,1.123575E4,1.01E2,4.995E2,8.91E2,9.5525E2,1.481325E4,4.65E1,4.78925E3,1.975E1,2.625E1,2.13E2,2.5E0,4.25E0,1.0325E2,2E0,2.75E0,6.945E2,8.775E1,4.05E1,9.825E1,1.675E2,2.2425E2,6.915E2,6.2375E2,6.7475E2,1.0102E4,3.375E1,4.525E1,1.19625E3,8.5175E2,1.2375E3,2.925E1,1.82745E4,9.98825E3,6.025E1,1.166925E4,8.975E1,9.1275E2,1.35E1,6.75E0,8.2475E2,1.785E2,4.452E3,3.384E3,4.1225E2,2.4E1,7.97675E3,2.0035E3,3.0067025E5,8.04775E3,1.3465E3,8.40575E3,6.115E2,3.2055E3,2.5875E2,9.2675E2,5.3E1,2.9075E2,1.497E3,5.04E2,1.151025E4,2.69475E3,2.0875E2,1.15E1,4.555E2,1.005E2,1.345E2,7.35E1,1.07575E3,1.231775E4,1.06775E3,5.0305E3,4.14775E3,5.9375E2,3.5E1,6.45E1,7.7045E3,3.53125E3,8.925E1,1.175E1,4.48E2,5.15E1,9.475E1,7.9625E2,5.695E2,3.8575E2,2.36E2,1.457725E4,3.575E1,1.075E1,4.705E3,8.425E1,1.675E1,3E0,1.475E1,1.15E1,9.75E1,1.155E2,2E0,2.25E0,1.625E1,8.7E1,6.07E2,8.75E1,4.1E1,4.675E1,3.3E1,7.5E0,6E0,9.225E1,4E0,1.635E2,1.675E1,2.075E2,1.05E1,6.81E2,5.965E2,2.725E1,1.905E2,4.8425E2,9.826E3,2.76E2,2.75E0,3.1E1,2.25E1,2.275E1,3.425E1,1.162E3,7.65E2,8.675E1,9.775E2,2.6E2,2.5E1,4.25E0,7.475E2,1.7527E4,1.34825E3,8.64E3,3.4E1,2.625E1,6.16925E3,5.5E3,2.875E1,6.1E1,7.75E2,1.3775E2,8.5E0,5E0,4.5E0,2.25E0,3.8475E2,4.4E2,9.075E1,8.775E1,1.17475E3,3.27725E3,7.1E1,3.313E3,3.1E1,3.8125E2,1.975E1,4.25E0,7.90925E3,6.75E1,1.95225E3,5.125E1,2.95888E5,4.78225E3,5.11625E3,2.9315E3,2.825E1,1.31825E3,7.20575E3,1.2E3,8E0,6.035E2,3.13725E3,6.825E1,1.275E1,2.46E2,5.3775E2,3.89E2,3.075E1,2.225E1,2.81E2,9.75E0,6.775E1,1.42925E3,4.355E2,6.85E1,3.14375E3,8.3665E3,2.18025E3,5.145E2,1.2025E2,8.85E1,9E0,2.5E0,3.87E2,6.85E1,7.075E1,2.975E1,1.065E2,2.8E1,5.7E1,1.65E1,6.1475E2,4.61E2,1.825E2,1.213525E4,9.145E2,1.5325E2,2.61675E3,2.41375E3,3.2525E2,3.8225E3,4.1175E2,1.82E2,3.175E1,3.25E0,9.75E0,5.475E1,7.20625E3,4.9825E2,3.153E3,3.7825E2,2.1E1,6.825E1,4E0,7.75E0,3.7575E2,7.225E1,2.325E1,2.825E1,1.1E1,8.375E1,6.98E2,9.825E1,5.415E2,2.8E1,2.045E2,1.8125E2,6.25E0,2.2975E2,5.332E3,9.24525E3,2.075E1,1.5E1,7.5E0,3.25E0,2.96675E3,1.73825E3,7.825E1,6E0,1.425E1,2.5E0,2.75E0,1.2E1,3.5E0,8E0,6.775E1,2.975E1,3E0,1.125E2,7.5E0,8.75E0,3.775E1,4.925E1,5.35E1,5.535E2,6.575E1,2.175E1,3.325E1,7.75E0,3.6E1,1.075E1,1.475E1,1.825E1,4E0,3.5E0,3E0,3E0,8.525E1,7E0,2E0,2E0,1.01E2,6.25E1,6.25E0,1.05E1,8.525E1,1.2225E2,5.5E0,5E0,6.745E2,6.5E0,2.25E1,5.74E2,2.3E1,4.25E0,1.885E2,2E0,3.1075E2,1.735E2,9.7525E3,7.35E1,4.725E1,2.2875E2,2E0,2.9E1,1.6E1,6.5E0,4E0,1.875E1,9.5E0,2.475E1,8.79E2,2.83E2,7.365E2,2.85E1,2.75E0,8.4E1,9.73E2,4.5E0,2.06E2,5.4E1,3.5E0,2.15E1,2E0,2.25E0,7.2725E2,2.025E1,1.68545E4,6.725E2,1.332E3,1.625E1,7.79575E3,8.4425E2,5E0,2.9E1,5.25E0,2.1E1,6.3275E2,5.5365E3,1.1735E3,4.3265E3,1.525E1,1.35E1,5.35E1,7.5E0,5.785E2,1.965E2,1.2075E2,1.7E1,6.5E0,2E0,2.5E0,2.5E0,1.72E2,2.1275E2,3.3075E2,1.0925E2,6.225E1,2.85E1,1.675E1,7.1E1,1.136E3,3.875E1,2.4875E2,3.0285E3,1.075E1,6.025E1,1.7625E2,3.13675E3,8.5E0,2.25E1,6.65E1,3.1475E2,6.25E0,1.35E1,2E0,2.25E0,7.125E1,7.838E3,2.025E1,4.725E1,2.9E1,1.92325E3,1.25E1,3.875E1,2.917805E5,4.1075E3,3.806E3,9.7625E2,4.93525E3,1.81E2,1.54475E3,1.38675E3,1.5E1,1.325E1,8.3575E2,4.825E2,6.63525E3,5.705E2,2.5E1,1.175E3,4.25E0,3.75E0,1.0775E2,4.9575E2,1.0355E3,2.10175E3,3.05E1,3.775E1,4.25E0,8.5E0,1.5275E2,9.325E1,2.1275E2,3.25E2,3.6725E2,2.175E1,2.825E1,2.5E0,5.5E0,1.675E1,1.855E2,9.55E1,3E0,6.75E0,3.5E0,6.425E1,2.175E1,1.4075E3,3.8925E2,4.625E1,2.375E1,4.475E1,2.03E2,2.94075E3,3.1825E2,8.04825E3,3E1,2.15025E3,4.2625E2,8.825E1,1.07E2,1.325E1,4.5E0,8.4E1,3.245E2,6.25E1,2.875E1,3.975E1,5.725E1,1.35E1,2.65E1,3.25E0,5.25E0,1.0125E2,1.575E1,1.225E1,2.5E0,5.45E1,1.325E1,3.25E0,2.075E1,5.94E2,1.675E1,4.4425E2,1.6275E2,1.975E1,3.55525E3,8.58E3,5.895E2,3.25E2,9.75E0,1.435E2,2.27525E3,3.415E2,2.258E3,1.5575E2,2.5125E2,7.4E1,3.747E3,7.55E1,2.4375E2,1.68E2,1.785E2,3.5E0,2.6E1,5.75E0,6E0,3.75E0,5.125E1,3.5E0,1.36775E3,5.8385E3,5.725E1,4.41E2,1.7505E3,1.4025E3,1.615E2,2.1675E2,1.4E1,7E0,4.95E1,1.875E1,2E0,2E0,4.5E0,3.25E0,3.4675E2,2.9E1,2.375E1,4.85E1,7.25E0,1.6E1,2.075E1,7.5E0,4.25E0,6.75E0,5.05E1,3.325E1,2.57E2,4.41E2,8.975E1,8.5E0,6.75E0,5.3475E2,2.425E1,3.75E0,1.6675E2,3.775E1,1.2675E2,5.45E1,2.19E2,1.075E1,9.725E1,5.23475E3,3.54175E3,5.7035E3,4.5E0,1.625E1,1.3E1,2E0,2E0,5.5E0,1.46E3,1.50675E3,1.8625E2,1.552E3,2.7E1,5.125E1,2.75E0,3.25E0,1.175E1,2.5E0,3E0,9E0,4.5E0,3.5E0,9.75E0,5.8E1,2.675E1,3E0,1.0775E2,4.75E0,5.25E0,2.25E0,3.25E0,5.5E0,5.5E0,3.225E1,4.75E0,4.45E1,5.025E1,3.25E0,5.3E2,2.35E1,3.625E1,2.95E1,1.55E1,6.25E0,7.75E0,2.55E1,5.5E0,2.25E0,9.5E0,2.65E1,7E0,3.75E0,1.075E1,4E0,1.525E1,3E0,2E0,2E0,1.175E1,7.35E1,2.25E0,4.75E0,3.25E0,9.775E1,1.1E1,5.15E1,3.25E0,3E0,5.5E0,5E0,7.675E1,8.5E0,1.025E1,1.12E2,3.5E0,2E0,2.75E0,2.25E0,8E1,5.945E2,2E0,4.5E0,1.825E1,4.25E0,5.585E2,1.55E1,1.8E1,5E0,2.25E0,2E0,2.75E0,1.8575E2,2.5425E2,5.65E1,1.125E1,1.6225E2,1.77925E3,7.97325E3,4.25E0,6.925E1,2.45E1,2.275E1,2.2025E2,8.5E0,9.25E0,1.975E1,6.25E0,9.75E0,2E0,2E0,3.25E0,1.55E1,6.25E0,3.25E0,1.325E1,1.15E1,8.705E2,8.5E0,3.25E0,2.7975E2,5.85E1,6.78E2,1.65E1,1.2E1,5.875E1,2.525E1,9.0275E2,7.025E1,2.5E0,2E0,3.275E1,1.7325E2,4.75E0,4.925E1,1.775E1,3.75E0,3.0025E2,4.27E2,1.675E1,3.5E0,1.34825E4,3.372E3,5.875E1,6.1375E2,4.08E2,9.24E2,1.175E1,4.5E0,6.05E1,7.73525E3,1.895E2,6.5475E2,2.5E0,2.5E0,2.5E1,4E0,2.25E0,3E0,1.675E1,4.25E0,6.775E1,5.65E2,4.7895E3,7.47E2,1E3,1.735E2,1.845E2,4.142E3,5.75E0,9.5E0,9E0,4.5E0,2.5E0,5.1E1,5.5E0,2E0,4.56E2,1.225E2,2.025E1,1.7625E2,8.5E1,3.575E1,1.15E1,5.5E0,2.5E0,4E0,1.65E1,1.555E2,2.05E1,1.9225E2,1.0875E2,2.22E2,3.575E1,7.35E1,2.5E0,5.975E1,2.25E1,6E0,1.35E1,5.75E1,7.25E0,1.12875E3,2.575E1,1.3E1,1.6125E2,8.75E1,2.67525E3,3.5325E2,4E0,6.75E0,1.025E1,5E1,2.5E0,1.7375E2,2.75E1,3.10925E3,4.75E0,3.75E0,1.4E1,8.5E0,4.35E1,2.3E1,6.7E1,2.4775E2,2.5E0,3.75E0,8.5E0,5E0],"tree_param":{"num_deleted":"0","num_feature":"30","num_nodes":"847","size_leaf_vector":"0"}},{"base_weights":[-7.868494E-1,-1.0661559E0,9.185887E-1,-1.2424992E0,9.0307975E-1,9.583293E-1,9.1528285E-1,-1.386246E0,9.153371E-1,7.823139E-1,9.0791464E-1,6.5937436E-1,9.626218E-1,9.1092086E-1,9.421559E-1,-1.5097378E0,8.987718E-1,9.8918396E-1,9.112837E-1,7.3491853E-1,1.0145947E0,8.983557E-1,9.31807E-1,7.473615E-1,-1.2012799E-1,9.294678E-1,9.979145E-1,8.877242E-1,9.1526186E-1,9.4577944E-1,7.449496E-1,8.377591E-1,-1.6134392E0,9.2369515E-1,8.84294E-1,9.0022874E-1,1.0474831E0,9.155254E-1,8.586045E-1,9.14343E-1,6.446726E-1,7.2916937E-1,1.2175698E0,9.1643876E-1,8.8200885E-1,9.8472756E-1,9.0168685E-1,3.159642E-1,9.2010003E-1,-9.872915E-1,1.2405312E-6,-0E0,9.319641E-1,1.1052262E0,9.798653E-1,9.15295E-1,8.5184455E-1,9.1218454E-1,9.5795816E-1,6.534361E-1,9.4800967E-1,1.170442E0,6.2810457E-1,9.0790826E-1,-3.5790786E-1,-1.7006106E0,9.129548E-1,8.7441146E-1,9.469352E-1,9.776476E-1,8.780568E-1,6.191062E-1,9.38594E-1,1.185841E0,9.9940866E-1,9.0335745E-1,9.382044E-1,8.846491E-1,5.833335E-1,7.176611E-1,1.0260534E0,5.838897E-1,9.3306875E-1,3.0068254E-1,1.0613499E0,-2.9631397E-7,1.2502955E0,9.250536E-1,8.6073005E-1,8.8349605E-1,6.273765E-1,1.010395E0,9.1267365E-1,9.1517395E-1,7.96958E-1,-6.328033E-1,6.967007E-1,7.086855E-1,1.3858624E0,-1.6013985E-7,-1.4821701E-6,-5.1535213E-1,1.0468918E-6,9.360531E-1,4.1243604E-1,1.1185353E0,-4.1341818E-7,1.0355479E0,9.4323117E-1,4.2997393E-1,9.1812754E-1,8.76777E-1,7.8075963E-1,9.2728215E-1,9.028288E-1,7.337128E-1,9.675427E-1,-6.89123E-7,7.2076505E-1,9.6564484E-1,9.13984E-1,1.2862499E0,-0E0,1.1748787E0,5.4875726E-1,9.250675E-1,8.7312406E-1,-4.9470085E-1,1.0718845E0,-1.7551322E0,9.215792E-1,9.056716E-1,1.0828673E0,8.960058E-1,7.2372437E-1,9.9591964E-1,8.98274E-1,9.50804E-1,1.5325359E0,7.8842777E-1,8.826709E-1,-6.328032E-1,7.535723E-1,9.87547E-1,6.172713E-1,9.2077184E-1,1.265175E0,1.6752831E-6,9.7716236E-1,8.2705754E-1,9.0984786E-1,8.398309E-1,9.479443E-1,9.290502E-1,7.557286E-1,-5.45575E-2,6.7017263E-1,-8.013473E-7,7.4911445E-1,1.057288E0,-7.064746E-2,4.541301E-1,7.669853E-1,1.2656978E0,6.3365513E-1,-4.9607036E-1,5.101837E-1,6.054139E-1,1.3101491E0,8.1211984E-1,1.3687834E0,9.393888E-1,8.864023E-1,9.147634E-1,6.902389E-1,8.708692E-1,9.16334E-1,-2.9164717E-1,7.396556E-1,9.7312397E-1,1.1066437E0,-8.013473E-7,9.1784626E-1,9.531069E-1,8.7805665E-1,1.2465165E0,7.651994E-1,-1.1219511E-6,-1.2079656E-7,1.0599982E0,-3.2296046E-7,9.596987E-1,-1.13318376E-1,5.383384E-7,1.6214047E-6,-1.0305207E-6,3.4884542E-7,9.4360507E-1,6.58991E-1,8.096658E-1,-3.8355362E-1,8.773739E-1,1.2040666E0,7.547722E-1,1.0543169E0,8.588957E-1,9.960396E-1,-1.4186014E-1,7.245998E-1,8.90938E-1,9.5611936E-1,9.277983E-1,8.2134193E-1,8.126675E-1,4.8794916E-1,9.307749E-1,7.9869694E-1,8.974459E-1,9.557134E-1,8.151158E-1,-1.2959944E-1,1.2646928E0,9.56959E-1,8.47141E-1,-1.7496495E-1,8.2238007E-1,9.7470415E-1,9.217844E-1,5.082807E-1,7.447141E-1,1.4949713E0,1.4716834E0,-1.3771326E-7,-3.7582502E-1,5.9030604E-1,9.315684E-1,7.9376E-1,9.2778975E-1,8.484394E-1,-6.423657E-1,7.6087517E-1,1.2961483E0,3.821501E-2,-1.80145E0,8.856483E-1,8.25988E-1,9.403894E-1,8.7855387E-1,9.29722E-1,1.1250354E0,6.9889617E-1,8.616921E-1,1.0150402E0,3.8215004E-2,7.5607777E-1,1.0161908E0,8.541542E-1,9.8235697E-1,8.5175866E-1,9.1712385E-1,1.3882754E0,1.705759E0,9.926019E-1,9.9786496E-1,7.0444345E-1,7.910067E-1,8.884055E-1,-1.2881834E-6,2.9631283E-7,8.60178E-1,-3.7582502E-1,1.0398307E0,6.354502E-1,-2.6193077E-2,9.108859E-1,5.3451145E-1,1.3212376E0,4.4871807E-1,1.2914501E0,1.1648346E0,9.2412055E-1,8.4121156E-1,5.0426863E-2,9.0445304E-1,1.0299029E0,3.1444818E-1,8.699233E-1,8.2046413E-1,9.564561E-1,5.327371E-1,9.5207095E-1,8.3543307E-1,6.148189E-1,9.0596837E-1,-4.9727324E-1,-3.8355368E-1,7.331791E-1,1.0999104E0,6.311282E-1,5.178105E-1,1.1245931E0,-7.5371906E-7,8.892408E-7,3.3263215E-1,8.572737E-1,-3.4353936E-1,7.910896E-1,1.0320251E0,1.6084734E0,7.989917E-1,-2.1602777E-1,-1.3669406E-6,2.6919407E-1,-1.6229336E-1,8.707253E-1,-0E0,9.7396135E-1,1.5530381E0,7.870139E-1,5.8281157E-2,1.0937852E0,-0E0,1.4053544E0,8.9284134E-1,9.5637345E-1,8.6154526E-1,9.8139274E-1,8.8719535E-1,1.1186211E0,7.125152E-1,-3.835536E-1,8.6786735E-1,1.1590623E0,8.389414E-1,9.398241E-1,1.0881424E-6,-1.2950284E-6,1.1928777E-1,8.732663E-1,9.0419954E-1,1.039939E0,1.1366583E0,8.113778E-1,4.822969E-1,9.362168E-1,1.0914701E0,9.366597E-1,8.644206E-1,1.0569674E0,1.3228583E0,-0E0,7.8388965E-1,3.0142995E-2,1.3604417E0,-0E0,1.232256E0,2.4031451E-1,-7.5371923E-7,4.9296787E-1,9.746057E-1,8.5737044E-1,-1.8479191E-1,7.990738E-1,-5.1519544E-7,1.1843606E0,-9.397044E-1,5.9277676E-7,4.4109482E-1,1.0362179E0,2.9574043E-1,1.2188118E0,9.9204296E-1,6.743997E-2,1.1108252E0,9.6192294E-1,8.158374E-1,1.140461E0,7.84487E-1,1.0173528E0,2.9164544E-1,-1.3959162E-6,9.3122745E-1,-1.0758119E-7,9.556887E-1,8.4409547E-1,1.0741256E0,9.3290603E-1,9.618149E-1,7.7735585E-1,5.0711507E-1,8.42077E-1,8.214326E-1,-1.13318354E-1,3.1126884E-1,9.084149E-1,9.245175E-1,1.0056198E0,6.836951E-1,9.1958576E-1,8.9899373E-1,7.4011695E-1,7.96868E-1,9.788073E-1,-2.4702236E-1,8.6762196E-1,-5.668183E-1,9.648263E-7,2.691941E-1,1.3140498E0,6.731486E-1,9.6399856E-1,9.573641E-1,1.2012629E-1,-9.1125554E-7,4.9296793E-1,4.946668E-1,8.8270664E-1,9.6364886E-1,1.0901233E0,1.7039587E-6,9.186881E-1,-4.6226773E-1,6.488091E-1,-0E0,1.1414248E0,1.6273293E0,6.0446865E-7,1.665347E-6,8.1673113E-7,-1.046893E-6,2.9631283E-7,8.7993705E-1,4.2661127E-1,8.9214456E-7,9.5105383E-7,7.9794955E-7,-5.420782E-8,9.68681E-7,8.428148E-7,5.7983914E-7,8.460344E-7,-7.415687E-7,8.861668E-7,8.302598E-7,-8.46307E-7,4.0831347E-7,1.3357719E-6,1.0305193E-6,-3.420675E-7,-1.8126859E-6,8.1978567E-7,9.0447554E-7,8.225194E-7,7.642794E-7,9.221327E-7,9.421804E-7,8.0962747E-7,8.8492607E-7,7.7031723E-7,1.0120327E-6,9.032685E-7,9.517578E-7,1.1890826E-6,-4.555704E-7,7.932356E-7,-4.4414644E-8,8.545982E-7,-0E0,1.0139588E-6,-3.1116798E-7,1.3959148E-6,8.9331235E-7,5.947758E-7,6.920556E-7,1.0078394E-6,7.0950927E-7,1.0100333E-6,1.0939449E-6,8.504517E-7,6.882531E-7,8.6885933E-7,9.318618E-7,3.9015262E-7,2.5753124E-7,1.4376346E-6,9.690971E-7,1.7782527E-6,1.3225454E-6,-0E0,1.0089276E-6,-2.5753275E-7,8.6323803E-7,5.70453E-7,7.0323694E-7,9.3688493E-7,9.962746E-7,8.6987023E-7,3.8750662E-7,1.1246672E-6,-1.121951E-6,4.807423E-7,8.038355E-7,1.0945388E-6,2.1615985E-7,1.087992E-6,1.1100094E-6,-4.390962E-7,6.710463E-7,1.4555083E-6,1.1394479E-6,1.5309932E-7,1.5809342E-6,6.7078076E-7,1.4425534E-6,-5.927782E-7,1.348343E-6,9.898881E-7,1.1886382E-6,2.4315392E-7,4.249365E-8,9.3256557E-7,5.5208446E-8,8.408461E-7,6.353083E-7,-5.1213453E-7,9.357321E-7,8.806922E-7,8.372806E-7,1.0693429E-6,-5.7223036E-7,6.3632575E-7,8.8145873E-7,2.8821955E-7,8.234553E-7,-7.5371923E-7,9.441701E-7,6.213462E-7,-5.370341E-8,7.4376794E-7,7.1363763E-7,9.652471E-7,6.4563704E-7,9.623723E-7,6.5708605E-7,-2.111737E-7,-0E0,1.3299792E-6,5.383384E-7,-9.504661E-7,1.8492265E-7,-1.1857062E-6,3.9865492E-7,9.689729E-7,1.3984319E-6,3.63842E-7,-4.329059E-7,6.924537E-7,2.509647E-7,1.4800441E-6,1.1651892E-6,6.8619283E-7,2.505227E-7,1.0088164E-6,4.5815526E-7,1.2103375E-6,5.151939E-7,-1.3959162E-6,7.2304823E-7,1.2367769E-6,1.4587857E-6,7.534981E-7,1.6812834E-6,6.891215E-7,-1.6273198E-7,9.5217894E-7,6.76406E-7,-9.737399E-7,-3.4884684E-7,6.891216E-7,-8.2392194E-7,5.242853E-7,2.3276154E-7,1.3455513E-6,5.072831E-7,-8.8924213E-7,1.4356359E-6,-1.07581094E-7,1.6614025E-6,6.834117E-7,-4.8074355E-7,1.1025434E-6,5.674699E-7,-8.8924213E-7,1.5841437E-6,6.11591E-7,1.4475548E-6,7.330557E-7,1.0128344E-6,8.5603455E-7,4.155005E-7,9.434844E-7,1.551824E-6,8.4310653E-7,1.0805919E-6,8.521402E-7,8.9303245E-7,4.762494E-7,1.1970154E-6,4.4186987E-7,7.7974335E-7,4.1740822E-7,2.0410454E-7,-1.0305208E-6,1.0467686E-6,8.506486E-7,1.1860171E-6,-2.9631428E-7,8.393703E-7,-7.985665E-8,7.645561E-7,9.371758E-7,5.375608E-7,-1.1857062E-6,9.987782E-7,-0E0,1.1665273E-6,8.564463E-7,1.0297363E-6,7.483206E-8,1.0231863E-6,1.2210675E-6,5.063834E-7,1.2440036E-6,-4.008936E-7,7.6464875E-7,2.3030105E-7,9.313051E-7,1.1112957E-6,5.812726E-7,6.008652E-7,9.307316E-7,8.6198924E-7,6.4704176E-7,1.0615328E-6,-4.807435E-7,3.2295898E-7,1.3940436E-6,9.625425E-7,7.2628563E-7,-7.465039E-7,7.811436E-7,5.151939E-7,1.6911451E-6,1.5978846E-6,4.550294E-7,-3.1140937E-7,1.3959149E-6,-3.4884678E-7,1.1219496E-6,9.923821E-7,8.4340957E-7,3.5035458E-7,8.5884705E-7,-5.1679257E-7,8.0134595E-7,-8.01347E-7,8.5818493E-7,1.2079501E-7,1.5504913E-6,-1.1857061E-6,-3.4884678E-7,1.3248838E-7,1.0646991E-6,1.0781804E-6,-4.807436E-7,-3.4884673E-7,8.0134595E-7,1.4270521E-6,1.1222811E-6,1.1052159E-6,-9.697231E-8,8.4552926E-7,-4.008936E-7,1.1011607E-6,1.075795E-7,9.868085E-7,5.1380175E-7,5.2049984E-7,8.463885E-7,-1.2079649E-7,1.1912518E-6,1.3078952E-6,5.630319E-7,1.0284087E-6,7.938174E-7,9.718342E-7,-7.728581E-7,-3.4884678E-7,1.1242828E-6,9.927056E-7,8.272794E-7,7.920418E-7,9.686802E-7,8.099596E-8,1.073586E-6,6.1202496E-7,9.317851E-7,9.753668E-7,7.4834253E-7,6.00998E-7,9.165431E-7,6.5789925E-7,-3.6945445E-7,8.626496E-7,6.892453E-7,7.727892E-7,9.73972E-7,8.892407E-7,-6.2289695E-7,1.132772E-6,1.9822305E-7,6.092309E-8,1.1819296E-6,9.3700606E-7,8.966827E-7,9.137334E-7,1.0727442E-6,7.2441816E-7,1.0187082E-7,9.3311803E-7,1.7222423E-7,8.7982204E-7,9.2560487E-7,8.125387E-7,2.4730613E-7,7.6740506E-8,8.1310327E-7,1.049526E-6,9.2659565E-7,3.6263214E-7,-1.0468931E-6,7.397632E-7,1.2586609E-6,3.2295898E-7,-1.261812E-6,-4.807436E-7,8.8924077E-7,1.0810792E-6,1.4743017E-6,9.4283405E-7,4.2556493E-7,9.580713E-7,7.688427E-7,5.206143E-7,1.1225771E-6,-8.4630705E-7,8.7353055E-7,1.1219497E-6,-3.4884678E-7,6.168997E-7,-4.0333705E-7,2.5945903E-7,9.0565214E-7,9.586491E-7,8.3629436E-7,1.461632E-6,1.0325949E-6,1.0078097E-6,8.8809526E-7,-1.0676722E-6,5.9277676E-7,9.553029E-7,2.2048144E-7,4.8074224E-7,1.3669394E-6,8.4630557E-7,1.7227042E-6,2.1117198E-7,1.0485644E-6,8.61321E-7,1.7965087E-7],"categories":[],"categories_nodes":[],"categories_segments":[],"categories_sizes":[],"default_left":[0,0,0,0,0,0,0,0,0,0,0,0,0,0,0,0,0,0,0,0,0,0,0,0,0,0,0,0,0,0,0,0,0,0,0,0,0,0,0,0,0,0,0,0,0,0,0,0,0,0,0,0,0,0,0,0,0,0,0,0,0,0,0,0,0,0,0,0,0,0,0,0,0,0,0,0,0,0,0,0,0,0,0,0,0,0,0,0,0,0,0,0,0,0,0,0,0,0,0,0,0,0,0,0,0,0,0,0,0,0,0,0,0,0,0,0,0,0,0,0,0,0,0,0,0,0,0,0,0,0,0,0,0,0,0,0,0,0,0,0,0,0,0,0,0,0,0,0,0,0,0,0,0,0,0,0,0,0,0,0,0,0,0,0,0,0,0,0,0,0,0,0,0,0,0,0,0,0,0,0,0,0,0,0,0,0,0,0,0,0,0,0,0,0,0,0,0,0,0,0,0,0,0,0,0,0,0,0,0,0,0,0,0,0,0,0,0,0,0,0,0,0,0,0,0,0,0,0,0,0,0,0,0,0,0,0,0,0,0,0,0,0,0,0,0,0,0,0,0,0,0,0,0,0,0,0,0,0,0,0,0,0,0,0,0,0,0,0,0,0,0,0,0,0,0,0,0,0,0,0,0,0,0,0,0,0,0,0,0,0,0,0,0,0,0,0,0,0,0,0,0,0,0,0,0,0,0,0,0,0,0,0,0,0,0,0,0,0,0,0,0,0,0,0,0,0,0,0,0,0,0,0,0,0,0,0,0,0,0,0,0,0,0,0,0,0,0,0,0,0,0,0,0,0,0,0,0,0,0,0,0,0,0,0,0,0,0,0,0,0,0,0,0,0,0,0,0,0,0,0,0,0,0,0,0,0,0,0,0,0,0,0,0,0,0,0,0,0,0,0,0,0,0,0,0,0,0,0,0,0,0,0,0,0,0,0,0,0,0,0,0,0,0,0,0,0,0,0,0,0,0,0,0,0,0,0,0,0,0,0,0,0,0,0,0,0,0,0,0,0,0,0,0,0,0,0,0,0,0,0,0,0,0,0,0,0,0,0,0,0,0,0,0,0,0,0,0,0,0,0,0,0,0,0,0,0,0,0,0,0,0,0,0,0,0,0,0,0,0,0,0,0,0,0,0,0,0,0,0,0,0,0,0,0,0,0,0,0,0,0,0,0,0,0,0,0,0,0,0,0,0,0,0,0,0,0,0,0,0,0,0,0,0,0,0,0,0,0,0,0,0,0,0,0,0,0,0,0,0,0,0,0,0,0,0,0,0,0,0,0,0,0,0,0,0,0,0,0,0,0,0,0,0,0,0,0,0,0,0,0,0,0,0,0,0,0,0,0,0,0,0,0,0,0,0,0,0,0,0,0,0,0,0,0,0,0,0,0,0,0,0,0,0,0,0,0,0,0,0,0,0,0,0,0,0,0,0,0,0,0,0,0,0,0,0,0,0,0,0,0,0,0,0,0,0,0,0,0,0,0,0,0,0,0,0,0,0,0,0,0,0,0,0,0,0,0,0,0,0,0,0,0,0,0,0,0,0,0,0,0,0,0,0,0,0,0,0,0,0,0,0,0,0,0,0,0,0,0,0,0,0,0,0,0,0,0,0,0,0,0,0,0,0,0,0,0,0,0,0,0,0,0,0,0,0,0,0,0,0,0,0,0,0,0,0,0,0,0,0,0,0,0,0,0,0,0,0,0,0,0,0,0,0,0,0,0,0,0,0,0,0,0,0,0,0,0,0,0,0,0,0],"id":1,"left_children":[1,3,5,7,9,11,13,15,17,19,21,23,25,27,29,31,33,35,37,39,41,43,45,47,49,51,53,55,57,59,61,63,65,67,69,71,73,75,77,79,81,83,85,87,89,91,93,95,97,99,-1,101,103,105,107,109,111,113,115,117,119,121,123,125,127,129,131,133,135,137,139,141,143,145,147,149,151,153,155,157,159,161,163,165,167,-1,169,171,173,175,177,179,181,183,185,187,189,191,193,-1,-1,195,-1,197,199,201,-1,203,205,207,209,211,213,215,217,219,221,-1,223,225,227,229,-1,231,233,235,237,239,241,243,245,247,249,251,253,255,257,259,261,263,265,267,269,271,273,275,277,-1,279,281,283,285,287,289,291,293,295,-1,297,299,301,303,305,307,309,311,313,315,317,319,321,323,325,327,329,331,333,335,337,339,341,-1,343,345,347,349,351,-1,-1,353,-1,355,357,-1,-1,-1,-1,359,361,363,365,367,369,371,373,375,377,379,381,383,385,387,389,391,393,395,397,399,401,403,405,407,409,411,413,415,417,419,421,423,425,427,-1,429,431,433,435,437,439,441,443,445,447,449,451,453,455,457,459,461,463,465,467,469,471,473,475,477,479,481,483,485,487,489,491,493,495,-1,-1,497,499,501,503,505,507,509,511,513,515,517,519,521,523,525,527,529,531,533,535,537,539,541,543,545,547,549,551,553,555,557,559,-1,-1,561,563,565,567,569,571,573,575,-1,577,579,581,583,585,587,589,591,593,-1,595,597,599,601,603,605,607,609,611,613,615,617,619,-1,-1,621,623,625,627,629,631,633,635,637,639,641,643,645,-1,647,649,651,-1,653,655,-1,657,659,661,663,665,-1,667,669,-1,671,673,675,677,679,681,683,685,687,689,691,693,695,-1,697,-1,699,701,703,705,707,709,711,713,715,717,719,721,723,725,727,729,731,733,735,737,739,741,743,-1,745,747,749,751,753,755,-1,757,759,761,763,765,-1,767,769,771,-1,773,775,-1,-1,-1,-1,-1,777,779,-1,-1,-1,-1,-1,-1,-1,-1,-1,-1,-1,-1,-1,-1,-1,-1,-1,-1,-1,-1,-1,-1,-1,-1,-1,-1,-1,-1,-1,-1,-1,-1,-1,-1,-1,-1,-1,-1,-1,-1,-1,-1,-1,-1,-1,-1,-1,-1,-1,-1,-1,-1,-1,-1,-1,-1,-1,-1,-1,-1,-1,-1,-1,-1,-1,-1,-1,-1,-1,-1,-1,-1,-1,-1,-1,-1,-1,-1,-1,-1,-1,-1,-1,-1,-1,-1,-1,-1,-1,-1,-1,-1,-1,-1,-1,-1,-1,-1,-1,-1,-1,-1,-1,-1,-1,-1,-1,-1,-1,-1,-1,-1,-1,-1,-1,-1,-1,-1,-1,-1,-1,-1,-1,-1,-1,-1,-1,-1,-1,-1,-1,-1,-1,-1,-1,-1,-1,-1,-1,-1,-1,-1,-1,-1,-1,-1,-1,-1,-1,-1,-1,-1,-1,-1,-1,-1,-1,-1,-1,-1,-1,-1,-1,-1,-1,-1,-1,-1,-1,-1,-1,-1,-1,-1,-1,-1,-1,-1,-1,-1,-1,-1,-1,-1,-1,-1,-1,-1,-1,-1,-1,-1,-1,-1,-1,-1,-1,-1,-1,-1,-1,-1,-1,-1,-1,-1,-1,-1,-1,-1,-1,-1,-1,-1,-1,-1,-1,-1,-1,-1,-1,-1,-1,-1,-1,-1,-1,-1,-1,-1,-1,-1,-1,-1,-1,-1,-1,-1,-1,-1,-1,-1,-1,-1,-1,-1,-1,-1,-1,-1,-1,-1,-1,-1,-1,-1,-1,-1,-1,-1,-1,-1,-1,-1,-1,-1,-1,-1,-1,-1,-1,-1,-1,-1,-1,-1,-1,-1,-1,-1,-1,-1,-1,-1,-1,-1,-1,-1,-1,-1,-1,-1,-1,-1,-1,-1,-1,-1,-1,-1,-1,-1,-1,-1,-1,-1,-1,-1,-1,-1,-1,-1,-1,-1,-1,-1,-1,-1,-1,-1,-1,-1,-1,-1,-1,-1,-1,-1,-1,-1,-1,-1,-1,-1,-1,-1,-1,-1,-1,-1,-1,-1,-1,-1,-1,-1,-1,-1],"loss_changes":[2.2640347E5,1.418259E5,8.0703125E0,1.1627075E5,1.9015625E1,6.0478516E0,6.5351562E0,9.916881E4,6.267578E0,1.36779785E1,6.6816406E0,5.22274E0,5.1416016E0,4.6914062E0,5.5683594E0,8.116694E4,5.8310547E0,5.493042E0,4.314453E0,1.702069E1,1.1889999E1,6.15625E0,1.3935059E1,4.7961693E0,1.0980068E1,6.0634766E0,3.8222656E0,7.677246E0,5.1640625E0,4.996582E0,7.304497E0,1.183415E3,7.032231E4,6.8828125E0,5.9433594E0,4.7460938E0,3.8494873E0,4.970703E0,1.1533081E1,7.3009033E0,1.2209869E1,1.2913517E1,6.574539E0,4.5927734E0,4.142578E0,5.3969727E0,7.695801E0,7.792289E0,3.9021149E0,2.179604E0,0E0,4.73588E0,5.2192383E0,7.365082E0,3.460205E0,6.1967773E0,5.934082E0,5.2109375E0,5.849121E0,6.480541E0,4.3027344E0,4.516453E0,4.961525E0,7.290039E0,1.5344522E2,4.4129E4,1.2375E1,6.387085E0,9.936768E0,9.346558E0,3.8574219E0,1.0587593E1,6.1775513E0,2.8825684E0,7.1256714E0,6.0117188E0,6.1967773E0,8.135864E0,8.149403E0,6.9113846E0,7.8572083E0,1.3934738E1,1.17226715E1,7.146552E0,5.2267075E0,0E0,5.5026245E0,4.555664E0,1.3079102E1,4.3476562E0,7.7428913E0,7.8901367E0,8.495972E0,6.6293945E0,8.87262E0,1.5191054E0,5.8964157E0,7.2226543E0,2.3447723E0,0E0,0E0,2.9955254E0,0E0,4.8984375E0,7.1543307E0,6.167572E0,0E0,3.671936E0,4.951538E0,4.9822927E0,4.171631E0,7.0307617E0,8.636902E0,6.5527344E0,6.6484375E0,8.946747E0,8.024658E0,0E0,7.346298E0,6.484375E0,8.714355E0,2.512722E0,0E0,6.148056E0,4.487297E0,6.9975586E0,5.312744E0,1.3288533E2,1.5854294E1,3.6986062E4,1.0667969E1,5.993164E0,6.374176E0,6.864868E0,5.9823303E0,5.677246E0,8.129639E0,8.934143E0,1.5391388E0,8.781342E0,4.772461E0,4.312667E0,6.895897E0,6.214508E0,1.10385E1,6.3914185E0,2.4911041E0,0E0,4.377594E0,1.1601013E1,7.2216797E0,1.0072388E1,6.408203E0,9.879578E0,4.006592E0,8.15986E0,8.800026E0,0E0,4.844223E0,7.5575714E0,5.353985E0,1.702253E1,6.836838E0,3.2882843E0,9.564159E0,6.5029645E0,8.194979E0,4.422383E0,3.1664772E0,5.9603767E0,4.809067E0,4.741699E0,5.381714E0,5.4697266E0,8.801392E0,6.7280273E0,5.416504E0,1.3453684E1,5.349022E0,7.3790283E0,5.2406616E0,0E0,6.6725464E0,4.987549E0,5.6831055E0,4.1224213E0,8.687836E0,0E0,0E0,3.6051683E0,0E0,4.96607E0,3.798492E0,0E0,0E0,0E0,0E0,6.036377E0,8.551462E0,7.9113817E0,4.7516813E0,6.0221405E0,3.0461426E0,8.803341E0,3.128662E0,5.2348633E0,2.8413086E0,6.1879926E0,3.4128876E0,7.7106934E0,4.534668E0,6.567505E0,8.148865E0,7.0878906E0,6.92288E0,6.5058594E0,5.4277344E0,5.1640625E0,8.062744E0,6.6073837E0,6.069571E0,4.429428E0,5.0058594E0,4.398239E0,4.6723323E0,6.215988E0,5.7368164E0,5.760254E0,7.8935223E0,2.9751296E0,1.635788E0,6.2376976E-1,0E0,2.7395E0,4.7914352E0,6.690918E0,6.1381836E0,4.8081055E0,8.331543E0,1.1011035E2,1.070969E1,2.5586548E0,5.3841147E0,3.1363688E4,8.033447E0,5.116272E0,9.730469E0,8.876221E0,5.6499023E0,4.1483154E0,5.9061203E0,8.555664E0,6.2734985E0,6.758901E0,5.4953156E0,4.074707E0,5.889084E0,1.13897705E1,6.368164E0,9.409302E0,3.495453E0,1.801529E-1,3.3341026E0,5.3526917E0,7.8272705E0,6.9133606E0,4.833496E0,0E0,0E0,6.291916E0,3.969576E0,4.3781433E0,9.485579E0,9.651611E0,4.3857613E0,5.59427E0,3.031971E0,6.676524E0,1.8594971E0,4.1964417E0,8.497559E0,1.0576416E1,7.0057225E0,4.6171875E0,4.5477905E0,1.1184168E1,8.862488E0,1.1053009E1,4.9072266E0,8.387238E0,6.3187866E0,5.84639E0,6.4822006E0,2.4481673E0,6.824697E0,3.8549433E0,9.735893E0,7.0221367E0,7.986805E0,6.4398446E0,4.2780457E0,0E0,0E0,1.4499086E1,1.1356552E1,6.03135E0,5.6113586E0,3.4843063E0,1.0137138E0,9.273663E0,8.637811E0,0E0,1.7004082E0,6.142621E0,6.6016865E0,4.2554855E0,6.5976553E0,1.5343056E0,5.5763907E0,4.698023E0,4.1892014E0,0E0,3.1323242E0,5.11438E0,5.3569336E0,6.2504883E0,6.326935E0,7.6342773E0,8.038727E0,7.799576E0,3.243886E0,5.4838867E0,6.1561356E0,9.999695E0,4.494385E0,0E0,0E0,7.6420984E0,6.645542E0,7.5665894E0,5.250305E0,5.1207275E0,8.240868E0,1.0037186E1,5.684021E0,4.469269E0,6.1678467E0,5.260132E0,6.5000916E0,3.4088135E0,0E0,4.9282227E0,1.0468568E1,1.901434E0,0E0,5.1254196E0,5.823797E0,0E0,3.1107416E0,6.578369E0,4.843445E0,4.027608E0,7.7795715E0,0E0,4.74457E0,4.7381067E-1,0E0,4.998191E0,6.4833984E0,1.9455673E0,3.1004639E0,5.840538E0,5.855911E0,3.5997314E0,4.8780212E0,5.085083E0,5.722229E0,7.999283E0,3.3653564E0,7.055678E0,0E0,4.554839E0,0E0,6.318115E0,8.236206E0,5.1091003E0,6.508545E0,6.06604E0,6.2800293E0,1.199057E1,5.4436035E0,4.5895996E0,5.1273217E0,6.181472E0,6.8843536E0,4.618164E0,6.907715E0,6.6761017E0,4.2169647E0,4.279297E0,9.553696E0,6.353943E0,5.949341E0,3.372092E0,4.4633865E0,5.9897385E0,0E0,3.0383723E0,2.2691345E0,4.446169E0,3.979248E0,3.3141632E0,6.8816338E0,0E0,3.110742E0,6.6082735E0,6.2708435E0,4.8442383E0,5.955261E0,0E0,4.1088867E0,5.551436E0,6.561157E0,0E0,5.0359535E-1,4.4371414E-1,0E0,0E0,0E0,0E0,0E0,4.5060387E0,7.5655737E0,0E0,0E0,0E0,0E0,0E0,0E0,0E0,0E0,0E0,0E0,0E0,0E0,0E0,0E0,0E0,0E0,0E0,0E0,0E0,0E0,0E0,0E0,0E0,0E0,0E0,0E0,0E0,0E0,0E0,0E0,0E0,0E0,0E0,0E0,0E0,0E0,0E0,0E0,0E0,0E0,0E0,0E0,0E0,0E0,0E0,0E0,0E0,0E0,0E0,0E0,0E0,0E0,0E0,0E0,0E0,0E0,0E0,0E0,0E0,0E0,0E0,0E0,0E0,0E0,0E0,0E0,0E0,0E0,0E0,0E0,0E0,0E0,0E0,0E0,0E0,0E0,0E0,0E0,0E0,0E0,0E0,0E0,0E0,0E0,0E0,0E0,0E0,0E0,0E0,0E0,0E0,0E0,0E0,0E0,0E0,0E0,0E0,0E0,0E0,0E0,0E0,0E0,0E0,0E0,0E0,0E0,0E0,0E0,0E0,0E0,0E0,0E0,0E0,0E0,0E0,0E0,0E0,0E0,0E0,0E0,0E0,0E0,0E0,0E0,0E0,0E0,0E0,0E0,0E0,0E0,0E0,0E0,0E0,0E0,0E0,0E0,0E0,0E0,0E0,0E0,0E0,0E0,0E0,0E0,0E0,0E0,0E0,0E0,0E0,0E0,0E0,0E0,0E0,0E0,0E0,0E0,0E0,0E0,0E0,0E0,0E0,0E0,0E0,0E0,0E0,0E0,0E0,0E0,0E0,0E0,0E0,0E0,0E0,0E0,0E0,0E0,0E0,0E0,0E0,0E0,0E0,0E0,0E0,0E0,0E0,0E0,0E0,0E0,0E0,0E0,0E0,0E0,0E0,0E0,0E0,0E0,0E0,0E0,0E0,0E0,0E0,0E0,0E0,0E0,0E0,0E0,0E0,0E0,0E0,0E0,0E0,0E0,0E0,0E0,0E0,0E0,0E0,0E0,0E0,0E0,0E0,0E0,0E0,0E0,0E0,0E0,0E0,0E0,0E0,0E0,0E0,0E0,0E0,0E0,0E0,0E0,0E0,0E0,0E0,0E0,0E0,0E0,0E0,0E0,0E0,0E0,0E0,0E0,0E0,0E0,0E0,0E0,0E0,0E0,0E0,0E0,0E0,0E0,0E0,0E0,0E0,0E0,0E0,0E0,0E0,0E0,0E0,0E0,0E0,0E0,0E0,0E0,0E0,0E0,0E0,0E0,0E0,0E0,0E0,0E0,0E0,0E0,0E0,0E0,0E0,0E0,0E0,0E0,0E0,0E0,0E0,0E0,0E0,0E0,0E0,0E0,0E0,0E0,0E0,0E0,0E0,0E0,0E0,0E0,0E0,0E0,0E0,0E0,0E0,0E0,0E0,0E0,0E0,0E0,0E0,0E0,0E0,0E0,0E0,0E0,0E0,0E0,0E0,0E0,0E0,0E0,0E0,0E0,0E0,0E0,0E0,0E0,0E0,0E0,0E0,0E0,0E0,0E0,0E0,0E0,0E0,0E0,0E0,0E0,0E0,0E0,0E0,0E0],"parents":[2147483647,0,0,1,1,2,2,3,3,4,4,5,5,6,6,7,7,8,8,9,9,10,10,11,11,12,12,13,13,14,14,15,15,16,16,17,17,18,18,19,19,20,20,21,21,22,22,23,23,24,24,25,25,26,26,27,27,28,28,29,29,30,30,31,31,32,32,33,33,34,34,35,35,36,36,37,37,38,38,39,39,40,40,41,41,42,42,43,43,44,44,45,45,46,46,47,47,48,48,49,49,51,51,52,52,53,53,54,54,55,55,56,56,57,57,58,58,59,59,60,60,61,61,62,62,63,63,64,64,65,65,66,66,67,67,68,68,69,69,70,70,71,71,72,72,73,73,74,74,75,75,76,76,77,77,78,78,79,79,80,80,81,81,82,82,83,83,84,84,86,86,87,87,88,88,89,89,90,90,91,91,92,92,93,93,94,94,95,95,96,96,97,97,98,98,101,101,103,103,104,104,105,105,107,107,108,108,109,109,110,110,111,111,112,112,113,113,114,114,115,115,116,116,118,118,119,119,120,120,121,121,123,123,124,124,125,125,126,126,127,127,128,128,129,129,130,130,131,131,132,132,133,133,134,134,135,135,136,136,137,137,138,138,139,139,140,140,141,141,142,142,143,143,144,144,145,145,146,146,148,148,149,149,150,150,151,151,152,152,153,153,154,154,155,155,156,156,158,158,159,159,160,160,161,161,162,162,163,163,164,164,165,165,166,166,167,167,168,168,169,169,170,170,171,171,172,172,173,173,174,174,175,175,176,176,177,177,178,178,179,179,180,180,182,182,183,183,184,184,185,185,186,186,189,189,191,191,192,192,197,197,198,198,199,199,200,200,201,201,202,202,203,203,204,204,205,205,206,206,207,207,208,208,209,209,210,210,211,211,212,212,213,213,214,214,215,215,216,216,217,217,218,218,219,219,220,220,221,221,222,222,223,223,224,224,225,225,226,226,227,227,228,228,229,229,230,230,231,231,233,233,234,234,235,235,236,236,237,237,238,238,239,239,240,240,241,241,242,242,243,243,244,244,245,245,246,246,247,247,248,248,249,249,250,250,251,251,252,252,253,253,254,254,255,255,256,256,257,257,258,258,259,259,260,260,261,261,262,262,263,263,264,264,265,265,266,266,269,269,270,270,271,271,272,272,273,273,274,274,275,275,276,276,277,277,278,278,279,279,280,280,281,281,282,282,283,283,284,284,285,285,286,286,287,287,288,288,289,289,290,290,291,291,292,292,293,293,294,294,295,295,296,296,297,297,298,298,299,299,300,300,303,303,304,304,305,305,306,306,307,307,308,308,309,309,310,310,312,312,313,313,314,314,315,315,316,316,317,317,318,318,319,319,320,320,322,322,323,323,324,324,325,325,326,326,327,327,328,328,329,329,330,330,331,331,332,332,333,333,334,334,337,337,338,338,339,339,340,340,341,341,342,342,343,343,344,344,345,345,346,346,347,347,348,348,349,349,351,351,352,352,353,353,355,355,356,356,358,358,359,359,360,360,361,361,362,362,364,364,365,365,367,367,368,368,369,369,370,370,371,371,372,372,373,373,374,374,375,375,376,376,377,377,378,378,379,379,381,381,383,383,384,384,385,385,386,386,387,387,388,388,389,389,390,390,391,391,392,392,393,393,394,394,395,395,396,396,397,397,398,398,399,399,400,400,401,401,402,402,403,403,404,404,405,405,407,407,408,408,409,409,410,410,411,411,412,412,414,414,415,415,416,416,417,417,418,418,420,420,421,421,422,422,424,424,425,425,431,431,432,432],"right_children":[2,4,6,8,10,12,14,16,18,20,22,24,26,28,30,32,34,36,38,40,42,44,46,48,50,52,54,56,58,60,62,64,66,68,70,72,74,76,78,80,82,84,86,88,90,92,94,96,98,100,-1,102,104,106,108,110,112,114,116,118,120,122,124,126,128,130,132,134,136,138,140,142,144,146,148,150,152,154,156,158,160,162,164,166,168,-1,170,172,174,176,178,180,182,184,186,188,190,192,194,-1,-1,196,-1,198,200,202,-1,204,206,208,210,212,214,216,218,220,222,-1,224,226,228,230,-1,232,234,236,238,240,242,244,246,248,250,252,254,256,258,260,262,264,266,268,270,272,274,276,278,-1,280,282,284,286,288,290,292,294,296,-1,298,300,302,304,306,308,310,312,314,316,318,320,322,324,326,328,330,332,334,336,338,340,342,-1,344,346,348,350,352,-1,-1,354,-1,356,358,-1,-1,-1,-1,360,362,364,366,368,370,372,374,376,378,380,382,384,386,388,390,392,394,396,398,400,402,404,406,408,410,412,414,416,418,420,422,424,426,428,-1,430,432,434,436,438,440,442,444,446,448,450,452,454,456,458,460,462,464,466,468,470,472,474,476,478,480,482,484,486,488,490,492,494,496,-1,-1,498,500,502,504,506,508,510,512,514,516,518,520,522,524,526,528,530,532,534,536,538,540,542,544,546,548,550,552,554,556,558,560,-1,-1,562,564,566,568,570,572,574,576,-1,578,580,582,584,586,588,590,592,594,-1,596,598,600,602,604,606,608,610,612,614,616,618,620,-1,-1,622,624,626,628,630,632,634,636,638,640,642,644,646,-1,648,650,652,-1,654,656,-1,658,660,662,664,666,-1,668,670,-1,672,674,676,678,680,682,684,686,688,690,692,694,696,-1,698,-1,700,702,704,706,708,710,712,714,716,718,720,722,724,726,728,730,732,734,736,738,740,742,744,-1,746,748,750,752,754,756,-1,758,760,762,764,766,-1,768,770,772,-1,774,776,-1,-1,-1,-1,-1,778,780,-1,-1,-1,-1,-1,-1,-1,-1,-1,-1,-1,-1,-1,-1,-1,-1,-1,-1,-1,-1,-1,-1,-1,-1,-1,-1,-1,-1,-1,-1,-1,-1,-1,-1,-1,-1,-1,-1,-1,-1,-1,-1,-1,-1,-1,-1,-1,-1,-1,-1,-1,-1,-1,-1,-1,-1,-1,-1,-1,-1,-1,-1,-1,-1,-1,-1,-1,-1,-1,-1,-1,-1,-1,-1,-1,-1,-1,-1,-1,-1,-1,-1,-1,-1,-1,-1,-1,-1,-1,-1,-1,-1,-1,-1,-1,-1,-1,-1,-1,-1,-1,-1,-1,-1,-1,-1,-1,-1,-1,-1,-1,-1,-1,-1,-1,-1,-1,-1,-1,-1,-1,-1,-1,-1,-1,-1,-1,-1,-1,-1,-1,-1,-1,-1,-1,-1,-1,-1,-1,-1,-1,-1,-1,-1,-1,-1,-1,-1,-1,-1,-1,-1,-1,-1,-1,-1,-1,-1,-1,-1,-1,-1,-1,-1,-1,-1,-1,-1,-1,-1,-1,-1,-1,-1,-1,-1,-1,-1,-1,-1,-1,-1,-1,-1,-1,-1,-1,-1,-1,-1,-1,-1,-1,-1,-1,-1,-1,-1,-1,-1,-1,-1,-1,-1,-1,-1,-1,-1,-1,-1,-1,-1,-1,-1,-1,-1,-1,-1,-1,-1,-1,-1,-1,-1,-1,-1,-1,-1,-1,-1,-1,-1,-1,-1,-1,-1,-1,-1,-1,-1,-1,-1,-1,-1,-1,-1,-1,-1,-1,-1,-1,-1,-1,-1,-1,-1,-1,-1,-1,-1,-1,-1,-1,-1,-1,-1,-1,-1,-1,-1,-1,-1,-1,-1,-1,-1,-1,-1,-1,-1,-1,-1,-1,-1,-1,-1,-1,-1,-1,-1,-1,-1,-1,-1,-1,-1,-1,-1,-1,-1,-1,-1,-1,-1,-1,-1,-1,-1,-1,-1,-1,-1,-1,-1,-1,-1,-1,-1,-1,-1,-1,-1,-1,-1,-1,-1,-1,-1,-1,-1,-1,-1,-1,-1,-1,-1,-1,-1,-1,-1,-1,-1,-1,-1,-1,-1,-1,-1],"split_conditions":[5.126674E-2,2.5064275E2,2.7547705E0,1.0641917E0,2.5350836E2,1.2190945E2,7.952588E1,3.1938462E0,6.6789837E0,8.524047E0,7.0270325E1,3.7243204E0,6.0698574E1,3.97246E0,5.1138515E1,6.502896E0,5.3854305E1,1.2510889E2,3.6978447E1,6.702478E0,2.2464055E-3,1.3646875E2,1.5268838E0,1.3093992E1,3.0942816E2,1.6896113E0,8.176375E1,1.490983E-2,4.944845E0,2.8268743E0,4.3999586E0,6.472698E0,8.524047E0,6.017238E-1,6.527888E1,6.0368986E0,4.4848216E-1,3.7773962E2,1.25802E1,3.4497E2,4.132658E0,2.6592578E2,1.6619602E1,4.363391E0,7.006104E1,8.6167336E1,4.5128393E0,6.5998716E0,2.5591526E0,7.104221E-1,1.2405312E-6,2.6640842E2,4.5737695E2,5.984661E0,6.985334E1,3.8423512E-2,3.6869454E0,1.695701E2,2.489253E1,3.790833E-11,3.6700783E0,1E0,4.146792E-2,1.960609E-3,3.8850176E-1,3.180092E-1,9.5723855E-1,1E0,3.9510422E2,2.3982579E2,5.5335575E1,2.8268743E0,1E0,1.4126437E2,1.4531482E1,8.641187E0,2.376613E0,2.3332677E0,2.2701746E2,2.5269106E1,2.1675713E0,5.4036885E-1,4.283393E-3,1.0571558E1,5.496757E1,-2.9631397E-7,2.8149447E0,3.0261376E0,1.4761733E-1,2.4000894E2,2.425158E0,8.470793E0,1.3691671E0,3.933354E2,7.132641E1,2.4863845E-1,1E0,9.665775E-26,1.153405E2,-1.6013985E-7,-1.4821701E-6,7.288281E0,1.0468918E-6,4.1103763E2,4.317781E2,5.745358E1,-4.1341818E-7,3.7291485E1,7.0471015E0,1.0803576E1,2.0775587E2,1.2033054E0,4.570167E0,3.6562784E0,3.7622135E0,2.285234E1,1.5151517E2,-6.89123E-7,2.4000894E2,6.527888E1,9.57446E-3,6.305099E-1,-0E0,1E0,7.984761E1,9.035114E1,9.879374E-1,1E0,4.0481318E-18,1.0127753E1,3.5526283E0,5.8752136E1,6.54169E-1,6.193114E-1,5.251177E0,7.9332536E-1,6.958063E0,9.10985E1,3.9090335E0,1.4848058E-1,7.759404E1,1.7542989E2,1E0,1.1704345E2,1.4370209E2,4.149847E2,2.7269733E1,1.6752831E-6,3.9973347E-6,9.016489E2,2.4075673E2,2.3191626E-1,8.352299E-2,3.1667755E1,3.632107E2,1.4990654E0,3.7291485E1,-8.013473E-7,2.0507703E2,7.055767E-10,1.381075E-35,3.1222522E0,2.1239063E-14,4.5993228E2,2.9455116E1,6.1947517E1,1.93742E-1,5.026373E0,9.9764686E-5,1.3170926E1,5.994182E1,2.7756552E2,1E0,3.9500566E0,5.6919916E2,5.984661E0,1.3501341E2,3.0027988E2,3.823621E-1,3.9690106E2,3.3108425E1,-8.013473E-7,2.6955933E1,7.055767E-10,9.7339294E1,5.984661E0,2.1675713E0,-1.1219511E-6,-1.2079656E-7,2.5587938E0,-3.2296046E-7,4.0263815E2,1.9255556E1,5.383384E-7,1.6214047E-6,-1.0305207E-6,3.4884542E-7,8.132904E0,6.003081E-2,1.3468456E-1,4.9288477E2,4.9170822E-1,8.290643E0,6.727586E1,3E-45,5.0519315E2,7.132641E1,1.884474E2,2.8161273E2,3.1534972E0,9.835898E-2,4.7326318E2,2.2631028E0,4.9000455E2,4.1310132E2,7.2241345E2,7.448828E0,3.7243204E0,8.04041E1,6.541843E0,8.421515E0,3.1048054E1,5.7432152E-2,1E0,4.5291726E-3,2.4426712E2,3.271748E1,3.8197572E0,1.2027824E2,5.7134987E1,1E0,7.976201E0,-1.3771326E-7,1.412479E2,1.6312627E2,6.230675E1,2.6968887E0,1.3530635E-2,1.6039194E2,5.001811E2,3.0427784E-1,3.375122E-2,3.823621E-1,4.2015214E0,1.8140495E2,1.33212E0,2.792703E0,2.641096E0,6.427415E1,1.19447024E-4,1.852092E2,4.1570673E0,3.1972819E-3,3.0635025E1,4.3405045E1,5.3073555E1,1.5288931E2,5.907364E0,8.6320694E1,7.3810236E2,2.2932932E-2,1.329401E2,3.8889173E-2,4.7317364E1,9.322648E-1,7.607162E1,8.3737816E1,-1.2881834E-6,2.9631283E-7,3.0198324E0,8.885139E1,4.022998E0,6.0517433E1,2.999711E-4,2.1275734E2,6.818937E0,9.5474594E1,6.894142E0,5.414483E2,9.549118E0,4.9170822E-1,4.894263E0,5.786075E1,4.2854324E1,1.0017369E0,6.472698E0,3.5929184E-2,4.8645485E-2,4.5737695E2,1.1405162E-6,4.9295688E-1,3.2592885E0,2.9551521E-2,1.3814668E2,1.3033992E2,2.009128E0,9.322648E-1,1.155935E-39,2.5998468E0,1E0,1E0,-7.5371906E-7,8.892408E-7,2.546063E2,1.6001654E-1,1.2608232E0,6.54169E-1,7.00349E-1,5.160173E2,3.9840168E1,7.4742203E0,-1.3669406E-6,9.128696E1,3.4510558E0,3.391261E-4,2.0361278E0,9.592441E0,6.1499634E2,2.7162805E2,9.549118E0,3.1926766E-1,-0E0,1.33212E0,3.667075E-7,1.3691671E0,1.66486E-17,5.3289825E1,3.3946908E0,6.606505E2,1E0,4.2621527E2,2.1239063E-14,4.4502457E1,5.1138515E1,5.6566267E0,1.0881424E-6,-1.2950284E-6,4.319132E0,6.3195984E2,1.371953E-9,4.8645485E-2,2.9627027E-4,4.4502457E1,2.8602812E0,1.9574515E0,4.944845E0,2.0430074E0,5.058073E-6,1.01559985E3,7.055767E-10,-0E0,1.9436077E-6,7.952588E1,1.0631692E2,-0E0,2.1424962E2,7.0096105E-1,-7.5371923E-7,6.7854935E1,1.9310178E-1,8.163652E0,2.5170321E0,2.104163E1,-5.1519544E-7,2.6977057E2,4.4216383E-2,5.9277676E-7,1.8416403E1,9.549118E0,2.9843779E0,9.942201E-6,3.1051392E1,3.4328812E2,5.744497E2,5.32081E2,2.0579702E-7,1.9696785E2,4.2321488E-1,6.505017E2,5.714369E1,-1.3959162E-6,9.777505E1,-1.0758119E-7,8.016068E-1,1.0968794E0,6.2141037E0,2.489253E1,1E0,5.2673535E2,1E0,1.1438555E0,8.481814E0,1.0957798E1,7.961445E0,1.3468456E-1,1.3612214E0,1.3558612E2,3.3946908E0,1.33212E0,1.7825645E0,6.333842E-15,2.6955933E1,3.8757536E0,5.3587195E2,1E0,1.6344011E1,9.648263E-7,2.86792E0,2.6382437E2,3.482675E-1,5.5327216E2,6.771092E0,1.1646637E2,-9.1125554E-7,7.177666E0,4.758332E-1,3.790833E-11,1.910478E0,3.4977503E0,1.7039587E-6,8.1094124E1,2.4496818E0,2.2506897E2,-0E0,8.6167336E1,2.6444488E0,6.0446865E-7,1.665347E-6,8.1673113E-7,-1.046893E-6,2.9631283E-7,1.0017369E0,1.485292E0,8.9214456E-7,9.5105383E-7,7.9794955E-7,-5.420782E-8,9.68681E-7,8.428148E-7,5.7983914E-7,8.460344E-7,-7.415687E-7,8.861668E-7,8.302598E-7,-8.46307E-7,4.0831347E-7,1.3357719E-6,1.0305193E-6,-3.420675E-7,-1.8126859E-6,8.1978567E-7,9.0447554E-7,8.225194E-7,7.642794E-7,9.221327E-7,9.421804E-7,8.0962747E-7,8.8492607E-7,7.7031723E-7,1.0120327E-6,9.032685E-7,9.517578E-7,1.1890826E-6,-4.555704E-7,7.932356E-7,-4.4414644E-8,8.545982E-7,-0E0,1.0139588E-6,-3.1116798E-7,1.3959148E-6,8.9331235E-7,5.947758E-7,6.920556E-7,1.0078394E-6,7.0950927E-7,1.0100333E-6,1.0939449E-6,8.504517E-7,6.882531E-7,8.6885933E-7,9.318618E-7,3.9015262E-7,2.5753124E-7,1.4376346E-6,9.690971E-7,1.7782527E-6,1.3225454E-6,-0E0,1.0089276E-6,-2.5753275E-7,8.6323803E-7,5.70453E-7,7.0323694E-7,9.3688493E-7,9.962746E-7,8.6987023E-7,3.8750662E-7,1.1246672E-6,-1.121951E-6,4.807423E-7,8.038355E-7,1.0945388E-6,2.1615985E-7,1.087992E-6,1.1100094E-6,-4.390962E-7,6.710463E-7,1.4555083E-6,1.1394479E-6,1.5309932E-7,1.5809342E-6,6.7078076E-7,1.4425534E-6,-5.927782E-7,1.348343E-6,9.898881E-7,1.1886382E-6,2.4315392E-7,4.249365E-8,9.3256557E-7,5.5208446E-8,8.408461E-7,6.353083E-7,-5.1213453E-7,9.357321E-7,8.806922E-7,8.372806E-7,1.0693429E-6,-5.7223036E-7,6.3632575E-7,8.8145873E-7,2.8821955E-7,8.234553E-7,-7.5371923E-7,9.441701E-7,6.213462E-7,-5.370341E-8,7.4376794E-7,7.1363763E-7,9.652471E-7,6.4563704E-7,9.623723E-7,6.5708605E-7,-2.111737E-7,-0E0,1.3299792E-6,5.383384E-7,-9.504661E-7,1.8492265E-7,-1.1857062E-6,3.9865492E-7,9.689729E-7,1.3984319E-6,3.63842E-7,-4.329059E-7,6.924537E-7,2.509647E-7,1.4800441E-6,1.1651892E-6,6.8619283E-7,2.505227E-7,1.0088164E-6,4.5815526E-7,1.2103375E-6,5.151939E-7,-1.3959162E-6,7.2304823E-7,1.2367769E-6,1.4587857E-6,7.534981E-7,1.6812834E-6,6.891215E-7,-1.6273198E-7,9.5217894E-7,6.76406E-7,-9.737399E-7,-3.4884684E-7,6.891216E-7,-8.2392194E-7,5.242853E-7,2.3276154E-7,1.3455513E-6,5.072831E-7,-8.8924213E-7,1.4356359E-6,-1.07581094E-7,1.6614025E-6,6.834117E-7,-4.8074355E-7,1.1025434E-6,5.674699E-7,-8.8924213E-7,1.5841437E-6,6.11591E-7,1.4475548E-6,7.330557E-7,1.0128344E-6,8.5603455E-7,4.155005E-7,9.434844E-7,1.551824E-6,8.4310653E-7,1.0805919E-6,8.521402E-7,8.9303245E-7,4.762494E-7,1.1970154E-6,4.4186987E-7,7.7974335E-7,4.1740822E-7,2.0410454E-7,-1.0305208E-6,1.0467686E-6,8.506486E-7,1.1860171E-6,-2.9631428E-7,8.393703E-7,-7.985665E-8,7.645561E-7,9.371758E-7,5.375608E-7,-1.1857062E-6,9.987782E-7,-0E0,1.1665273E-6,8.564463E-7,1.0297363E-6,7.483206E-8,1.0231863E-6,1.2210675E-6,5.063834E-7,1.2440036E-6,-4.008936E-7,7.6464875E-7,2.3030105E-7,9.313051E-7,1.1112957E-6,5.812726E-7,6.008652E-7,9.307316E-7,8.6198924E-7,6.4704176E-7,1.0615328E-6,-4.807435E-7,3.2295898E-7,1.3940436E-6,9.625425E-7,7.2628563E-7,-7.465039E-7,7.811436E-7,5.151939E-7,1.6911451E-6,1.5978846E-6,4.550294E-7,-3.1140937E-7,1.3959149E-6,-3.4884678E-7,1.1219496E-6,9.923821E-7,8.4340957E-7,3.5035458E-7,8.5884705E-7,-5.1679257E-7,8.0134595E-7,-8.01347E-7,8.5818493E-7,1.2079501E-7,1.5504913E-6,-1.1857061E-6,-3.4884678E-7,1.3248838E-7,1.0646991E-6,1.0781804E-6,-4.807436E-7,-3.4884673E-7,8.0134595E-7,1.4270521E-6,1.1222811E-6,1.1052159E-6,-9.697231E-8,8.4552926E-7,-4.008936E-7,1.1011607E-6,1.075795E-7,9.868085E-7,5.1380175E-7,5.2049984E-7,8.463885E-7,-1.2079649E-7,1.1912518E-6,1.3078952E-6,5.630319E-7,1.0284087E-6,7.938174E-7,9.718342E-7,-7.728581E-7,-3.4884678E-7,1.1242828E-6,9.927056E-7,8.272794E-7,7.920418E-7,9.686802E-7,8.099596E-8,1.073586E-6,6.1202496E-7,9.317851E-7,9.753668E-7,7.4834253E-7,6.00998E-7,9.165431E-7,6.5789925E-7,-3.6945445E-7,8.626496E-7,6.892453E-7,7.727892E-7,9.73972E-7,8.892407E-7,-6.2289695E-7,1.132772E-6,1.9822305E-7,6.092309E-8,1.1819296E-6,9.3700606E-7,8.966827E-7,9.137334E-7,1.0727442E-6,7.2441816E-7,1.0187082E-7,9.3311803E-7,1.7222423E-7,8.7982204E-7,9.2560487E-7,8.125387E-7,2.4730613E-7,7.6740506E-8,8.1310327E-7,1.049526E-6,9.2659565E-7,3.6263214E-7,-1.0468931E-6,7.397632E-7,1.2586609E-6,3.2295898E-7,-1.261812E-6,-4.807436E-7,8.8924077E-7,1.0810792E-6,1.4743017E-6,9.4283405E-7,4.2556493E-7,9.580713E-7,7.688427E-7,5.206143E-7,1.1225771E-6,-8.4630705E-7,8.7353055E-7,1.1219497E-6,-3.4884678E-7,6.168997E-7,-4.0333705E-7,2.5945903E-7,9.0565214E-7,9.586491E-7,8.3629436E-7,1.461632E-6,1.0325949E-6,1.0078097E-6,8.8809526E-7,-1.0676722E-6,5.9277676E-7,9.553029E-7,2.2048144E-7,4.8074224E-7,1.3669394E-6,8.4630557E-7,1.7227042E-6,2.1117198E-7,1.0485644E-6,8.61321E-7,1.7965087E-7],"split_indices":[13,3,2,8,3,11,16,9,15,0,16,9,16,2,15,0,16,10,15,0,1,10,9,15,14,12,10,1,5,2,2,0,0,5,10,0,5,14,2,11,12,14,14,12,16,16,12,0,9,5,0,3,10,12,16,9,2,3,14,1,12,27,8,13,1,1,8,27,11,3,16,2,22,14,14,15,12,5,11,16,1,8,1,15,16,0,12,9,1,10,12,2,2,11,16,13,17,4,10,0,0,0,0,3,14,10,0,14,0,15,3,5,12,13,9,14,11,0,10,10,4,5,0,20,16,16,9,21,4,2,2,16,1,8,0,8,0,16,12,8,10,3,27,10,3,11,16,0,1,11,3,9,5,16,14,9,14,0,11,13,4,9,1,11,15,16,8,2,1,15,10,3,21,5,14,12,14,3,5,11,15,0,14,13,16,12,1,0,0,2,0,14,15,0,0,0,0,0,8,13,11,5,14,16,4,14,16,10,3,12,13,14,12,3,14,11,0,9,10,15,2,16,13,23,1,11,15,15,3,15,26,0,0,3,3,16,1,13,11,14,1,8,5,12,3,1,9,9,14,1,11,14,5,15,16,10,10,2,10,11,8,14,1,15,5,16,10,0,0,12,10,2,16,1,3,0,14,0,11,0,5,0,16,16,9,0,13,13,10,13,9,12,13,3,3,8,5,4,2,20,22,0,0,10,8,5,1,5,14,16,0,0,14,12,13,5,2,11,11,0,8,0,1,1,2,1,16,5,11,20,11,1,15,15,0,0,0,12,11,13,13,13,15,12,12,5,2,4,11,13,0,1,16,10,0,3,8,0,16,1,0,2,16,0,11,1,0,15,0,12,1,14,11,14,14,1,11,5,11,16,0,10,0,8,8,14,14,23,14,24,13,0,15,15,13,9,3,5,1,13,4,14,9,11,17,15,0,12,14,8,14,0,10,0,0,1,1,8,2,0,10,9,3,0,16,12,0,0,0,0,0,9,9,0,0,0,0,0,0,0,0,0,0,0,0,0,0,0,0,0,0,0,0,0,0,0,0,0,0,0,0,0,0,0,0,0,0,0,0,0,0,0,0,0,0,0,0,0,0,0,0,0,0,0,0,0,0,0,0,0,0,0,0,0,0,0,0,0,0,0,0,0,0,0,0,0,0,0,0,0,0,0,0,0,0,0,0,0,0,0,0,0,0,0,0,0,0,0,0,0,0,0,0,0,0,0,0,0,0,0,0,0,0,0,0,0,0,0,0,0,0,0,0,0,0,0,0,0,0,0,0,0,0,0,0,0,0,0,0,0,0,0,0,0,0,0,0,0,0,0,0,0,0,0,0,0,0,0,0,0,0,0,0,0,0,0,0,0,0,0,0,0,0,0,0,0,0,0,0,0,0,0,0,0,0,0,0,0,0,0,0,0,0,0,0,0,0,0,0,0,0,0,0,0,0,0,0,0,0,0,0,0,0,0,0,0,0,0,0,0,0,0,0,0,0,0,0,0,0,0,0,0,0,0,0,0,0,0,0,0,0,0,0,0,0,0,0,0,0,0,0,0,0,0,0,0,0,0,0,0,0,0,0,0,0,0,0,0,0,0,0,0,0,0,0,0,0,0,0,0,0,0,0,0,0,0,0,0,0,0,0,0,0,0,0,0,0,0,0,0,0,0,0,0,0,0,0,0,0,0,0,0,0,0,0,0,0,0,0,0,0,0,0,0,0,0,0,0,0,0,0,0,0,0,0,0,0,0,0,0,0,0,0,0,0,0,0,0,0,0,0],"split_type":[0,0,0,0,0,0,0,0,0,0,0,0,0,0,0,0,0,0,0,0,0,0,0,0,0,0,0,0,0,0,0,0,0,0,0,0,0,0,0,0,0,0,0,0,0,0,0,0,0,0,0,0,0,0,0,0,0,0,0,0,0,0,0,0,0,0,0,0,0,0,0,0,0,0,0,0,0,0,0,0,0,0,0,0,0,0,0,0,0,0,0,0,0,0,0,0,0,0,0,0,0,0,0,0,0,0,0,0,0,0,0,0,0,0,0,0,0,0,0,0,0,0,0,0,0,0,0,0,0,0,0,0,0,0,0,0,0,0,0,0,0,0,0,0,0,0,0,0,0,0,0,0,0,0,0,0,0,0,0,0,0,0,0,0,0,0,0,0,0,0,0,0,0,0,0,0,0,0,0,0,0,0,0,0,0,0,0,0,0,0,0,0,0,0,0,0,0,0,0,0,0,0,0,0,0,0,0,0,0,0,0,0,0,0,0,0,0,0,0,0,0,0,0,0,0,0,0,0,0,0,0,0,0,0,0,0,0,0,0,0,0,0,0,0,0,0,0,0,0,0,0,0,0,0,0,0,0,0,0,0,0,0,0,0,0,0,0,0,0,0,0,0,0,0,0,0,0,0,0,0,0,0,0,0,0,0,0,0,0,0,0,0,0,0,0,0,0,0,0,0,0,0,0,0,0,0,0,0,0,0,0,0,0,0,0,0,0,0,0,0,0,0,0,0,0,0,0,0,0,0,0,0,0,0,0,0,0,0,0,0,0,0,0,0,0,0,0,0,0,0,0,0,0,0,0,0,0,0,0,0,0,0,0,0,0,0,0,0,0,0,0,0,0,0,0,0,0,0,0,0,0,0,0,0,0,0,0,0,0,0,0,0,0,0,0,0,0,0,0,0,0,0,0,0,0,0,0,0,0,0,0,0,0,0,0,0,0,0,0,0,0,0,0,0,0,0,0,0,0,0,0,0,0,0,0,0,0,0,0,0,0,0,0,0,0,0,0,0,0,0,0,0,0,0,0,0,0,0,0,0,0,0,0,0,0,0,0,0,0,0,0,0,0,0,0,0,0,0,0,0,0,0,0,0,0,0,0,0,0,0,0,0,0,0,0,0,0,0,0,0,0,0,0,0,0,0,0,0,0,0,0,0,0,0,0,0,0,0,0,0,0,0,0,0,0,0,0,0,0,0,0,0,0,0,0,0,0,0,0,0,0,0,0,0,0,0,0,0,0,0,0,0,0,0,0,0,0,0,0,0,0,0,0,0,0,0,0,0,0,0,0,0,0,0,0,0,0,0,0,0,0,0,0,0,0,0,0,0,0,0,0,0,0,0,0,0,0,0,0,0,0,0,0,0,0,0,0,0,0,0,0,0,0,0,0,0,0,0,0,0,0,0,0,0,0,0,0,0,0,0,0,0,0,0,0,0,0,0,0,0,0,0,0,0,0,0,0,0,0,0,0,0,0,0,0,0,0,0,0,0,0,0,0,0,0,0,0,0,0,0,0,0,0,0,0,0,0,0,0,0,0,0,0,0,0,0,0,0,0,0,0,0,0,0,0,0,0,0,0,0,0,0,0,0,0,0,0,0,0,0,0,0,0,0,0,0,0,0,0,0,0,0,0,0,0,0,0,0,0,0,0,0,0,0,0,0,0,0,0,0,0,0,0,0,0,0,0,0,0,0,0,0,0,0,0,0,0,0,0,0,0,0,0,0,0,0,0,0,0,0,0,0,0,0,0,0,0,0,0,0,0],"sum_hessian":[4.752955E5,4.08409E5,6.68865E4,3.748425E5,3.35665E4,5.1185E3,6.1768E4,3.5143175E5,2.341075E4,1.29725E3,3.226925E4,7.425E1,5.04425E3,5.316675E4,8.60125E3,3.33413E5,1.801875E4,1.20775E3,2.2203E4,1.08025E3,2.17E2,2.307075E4,9.1985E3,6.675E1,7.5E0,2.6125E3,2.43175E3,8.40775E3,4.4759E4,8.443E3,1.5825E2,1.410525E4,3.1930775E5,6.602E3,1.141675E4,4.835E2,7.2425E2,2.0536E4,1.667E3,3.59E2,7.2125E2,9.175E1,1.2525E2,1.093225E4,1.21385E4,3.327E3,5.8715E3,1.975E1,4.7E1,4.75E0,2.75E0,7E0,2.6055E3,3.43E2,2.08875E3,4.743E3,3.66475E3,4.1767E4,2.992E3,6.575E1,8.37725E3,3.25E1,1.2575E2,1.332375E4,7.815E2,3.08658E5,1.064975E4,2.12575E3,4.47625E3,7.07E2,1.070975E4,5.975E1,4.2375E2,1.8175E2,5.425E2,1.3387E4,7.149E3,1.52125E3,1.4575E2,1.3225E2,2.2675E2,5.9775E2,1.235E2,4.075E1,5.1E1,2.5E0,1.2275E2,9.457E3,1.47525E3,1.2066E4,7.25E1,2.44525E3,8.8175E2,5.196E3,6.755E2,5.5E0,1.425E1,3.375E1,1.325E1,2.25E0,2.5E0,5E0,2E0,2.5845E3,2.1E1,3.4025E2,2.75E0,8.2E2,1.26875E3,2.825E1,4.71475E3,2.70625E3,9.585E2,1.5949E4,2.5818E4,1.2525E2,2.86675E3,2.75E0,6.3E1,5.50275E3,2.8745E3,2.95E1,3E0,1.45E1,1.1125E2,8.90825E3,4.4155E3,7.1375E2,6.775E1,3.0237125E5,6.28675E3,1.0217E4,4.3275E2,1.85575E3,2.7E2,2.22275E3,2.2535E3,6.765E2,3.05E1,5.3125E2,1.01785E4,5.5E0,5.425E1,3.6625E2,5.75E1,4.425E1,1.375E2,1.475E1,5.2775E2,1.05775E3,1.232925E4,6.505E2,6.4985E3,1.12775E3,3.935E2,1.75E1,1.2825E2,2.25E0,1.3E2,2.205E2,6.25E0,3.515E2,2.4625E2,5.725E1,6.625E1,8.25E0,3.25E1,1.9E1,3.2E1,2.75E1,9.525E1,6.8845E3,2.5725E3,1.1175E3,3.5775E2,8.73125E3,3.33475E3,7.75E0,6.475E1,1.76925E3,6.76E2,2.25E0,8.795E2,2.55975E3,2.63625E3,4.25E1,6.33E2,2.25E0,3.25E0,1.05E1,3.75E0,2.575E1,8E0,3.75E0,9.5E0,3E0,2E0,2.514E3,7.05E1,1.4E1,7E0,9.15E1,2.4875E2,5.35E1,7.665E2,4.94E2,7.7475E2,9.75E0,1.85E1,2.75975E3,1.955E3,1.4025E3,1.30375E3,8.63E2,9.55E1,1.552225E4,4.2675E2,2.344625E4,2.37175E3,1.145E2,1.075E1,9.525E1,2.7715E3,5.525E1,7.75E0,3.3175E2,5.171E3,2.81925E3,5.525E1,9.25E0,2.025E1,1.175E1,2.75E0,4.5E0,1.0675E2,8.48325E3,4.25E2,1.36425E3,3.05125E3,6.39E2,7.475E1,5.55E1,1.225E1,2.971595E5,5.21175E3,1.03975E3,5.247E3,4.81675E3,5.40025E3,3.885E2,4.425E1,1.44575E3,4.1E2,1.225E1,2.5775E2,1.94025E3,2.825E2,7.9675E2,1.45675E3,6.305E2,4.6E1,2.175E1,8.75E0,1.495E2,3.8175E2,6.06E2,9.5725E3,3E0,2.5E0,4.975E1,4.5E0,3.175E2,4.875E1,1.825E1,3.925E1,2.35E1,2.075E1,4.75E0,1.3275E2,1.125E2,4.1525E2,1.03875E3,1.9E1,1.180575E4,5.235E2,3.575E1,6.1475E2,4.1175E2,6.08675E3,6.3E1,1.06475E3,2.4875E2,1.4475E2,5.25E0,1.225E1,7E0,1.2125E2,3.1E1,9.9E1,2.525E1,1.9525E2,3.75E0,2.5E0,2.7125E2,8.025E1,5E0,2.4125E2,3.6E1,2.125E1,5.55E1,1.075E1,3.5E0,4.75E0,1.15E1,2.1E1,7.5E0,1.15E1,2.075E1,1.125E1,7.75E0,1.975E1,2.5E0,9.275E1,1.85225E3,5.03225E3,2.0455E3,5.27E2,9.8825E2,1.2925E2,3.5075E2,7E0,8.6445E3,8.675E1,7.835E2,2.55125E3,3.25E0,4.5E0,1.175E1,5.3E1,8.7675E2,8.925E2,6.115E2,6.45E1,3.65E1,8.43E2,2.6625E2,2.2935E3,2.454E3,1.8225E2,4E1,2.5E0,6.1725E2,1.575E1,8E0,2.5E0,1.825E1,7.5E0,3.75E0,4.25E0,1.843E3,6.71E2,1E1,6.05E1,3E0,1.1E1,4.5E0,2.5E0,2.525E1,6.625E1,4.25E0,2.445E2,3.95E1,1.4E1,4.7E2,2.965E2,4.3125E2,6.275E1,7.375E1,7.01E2,7.75E0,2E0,1.475E1,3.75E0,1.15175E3,1.608E3,3.1525E2,1.63975E3,1.14025E3,2.6225E2,8.2E1,1.22175E3,8.55E2,8E0,6.825E1,2.725E1,1.433475E4,1.1875E3,2.215E2,2.0525E2,2.3214E4,2.3225E2,3.0475E2,2.067E3,5.25E0,1.0925E2,8E0,2.75E0,4.75E0,9.05E1,6.9E1,2.7025E3,4.775E1,7.5E0,3.5E0,4.25E0,5.275E1,2.79E2,4.726E3,4.45E2,9E0,2.81025E3,6.75E0,4.85E1,3.5E0,5.75E0,1.7E1,3.25E0,7.75E0,4E0,2E0,2.5E0,3.725E1,6.95E1,4.919E3,3.56425E3,4.1675E2,8.25E0,7.5775E2,6.065E2,1.265E2,2.92475E3,5.965E2,4.25E1,7.15E1,3.25E0,4E0,5.15E1,3E0,9.25E0,2.92708E5,4.4515E3,3.12425E3,2.0875E3,7.23E2,3.1675E2,4.58825E3,6.5875E2,3.96525E3,8.515E2,5.8325E2,4.817E3,1.3725E2,2.5125E2,3.5E0,4.075E1,1.025E1,1.4355E3,6E0,4.04E2,1.025E1,2E0,1.27E2,1.3075E2,4.825E1,1.892E3,1.615E2,1.21E2,3.78E2,4.1875E2,2.4875E2,1.208E3,5.96E2,3.45E1,3E0,4.3E1,3.75E0,1.8E1,6.25E0,2.5E0,1.465E2,3E0,1.5825E2,2.235E2,4.135E2,1.925E2,3.44E2,9.2285E3,1.95E1,3.025E1,2.25E0,2.25E0,8E1,2.375E2,2.65E1,2.225E1,4.5E0,1.375E1,2.925E1,1E1,8.25E0,1.525E1,1.35E1,7.25E0,2.25E0,2.5E0,1.0175E2,3.1E1,1.0725E2,5.25E0,1.075E1,4.045E2,1.7E1,1.02175E3,9.25E0,9.75E0,2.04575E3,9.76E3,1.285E2,3.95E2,9.5E0,2.625E1,5.8825E2,2.65E1,4.08E2,3.75E0,6.0345E3,5.225E1,1.75E1,4.55E1,1.2125E2,9.435E2,1.12E2,1.3675E2,1.3625E2,8.5E0,2E0,3.25E0,3.75E0,8.5E0,4.5E0,2.5E0,5.35E1,6.775E1,2.1E1,1E1,6E0,9.3E1,2.075E1,4.5E0,1.7025E2,2.5E1,2.4475E2,2.65E1,4E1,4.025E1,3E0,2E0,2.17E2,2.425E1,1.2E1,2.4E1,1.85E1,2.75E0,8.25E0,4.725E1,5E0,5.75E0,2E0,2.75E0,5.75E0,5.75E0,9.75E0,1.125E1,5E0,2.5E0,7.75E0,3.75E0,1.725E1,3.5E0,2.25E0,9E0,5.25E0,2.5E0,8.5E0,1.125E1,8.35E1,9.25E0,2.645E2,1.58775E3,2.05E1,5.01175E3,1.25E1,2.033E3,2.5925E2,2.6775E2,9.405E2,4.775E1,1.1225E2,1.7E1,2.7375E2,7.7E1,4E0,3E0,1.5575E2,8.48875E3,8.425E1,2.5E0,7.72E2,1.15E1,1.82E2,2.36925E3,9.25E0,2.5E0,4.55E1,7.5E0,9.2E1,7.8475E2,8.8675E2,5.75E0,3.205E2,2.91E2,4E1,2.45E1,9E0,2.75E1,1.2E1,8.31E2,2.4675E2,1.95E1,6.225E1,2.23125E3,2.32475E3,1.2925E2,1.8E2,2.25E0,3.75E0,3.625E1,1.1525E2,5.02E2,7.75E0,8E0,3E0,5E0,1.15E1,6.75E0,5.5E0,2E0,2E0,2.25E0,1.4295E3,4.135E2,2.025E1,6.5075E2,7.75E0,2.25E0,2.25E0,5.825E1,3.25E0,7.75E0,2.5E0,2E0,1.775E1,7.5E0,6.4E1,2.25E0,2E0,2.25E0,5.85E1,1.86E2,3.525E1,4.25E0,5E0,9E0,4.6625E2,3.75E0,2.705E2,2.6E1,5.875E1,3.725E2,3.25E0,5.95E1,1.95E1,5.425E1,6.175E2,8.35E1,4.75E0,3E0,2E0,1.275E1,7.855E2,3.6625E2,1.25875E3,3.4925E2,5.25E0,3.1E2,7.075E1,1.569E3,9.9375E2,1.465E2,1.2775E2,1.345E2,6.95E1,1.25E1,9.805E2,2.4125E2,7.0675E2,1.4825E2,2.5E0,5.5E0,7E0,6.125E1,7.25E0,2E1,4.73125E3,9.6035E3,6.24E2,5.635E2,2.03E2,1.85E1,1.975E2,7.75E0,2.06455E4,2.5685E3,1.9725E2,3.5E1,1.2E1,2.9275E2,6.135E2,1.4535E3,3.25E0,2E0,8.7E1,2.225E1,3.75E0,4.25E0,2.25E0,2.5E0,4.425E1,4.625E1,3.05E1,3.85E1,2.56825E3,1.3425E2,1.525E1,3.25E1,3.25E0,4.25E0,2.25E0,2E0,4.625E1,6.5E0,1.625E1,2.6275E2,4.33075E3,3.9525E2,3.925E1,4.0575E2,3.7375E2,2.4365E3,4.25E0,2.5E0,2.7E1,2.15E1,2.25E0,3.5E0,3.25E0,1.375E1,8.5E0,2.875E1,2.375E1,4.575E1],"tree_param":{"num_deleted":"0","num_feature":"30","num_nodes":"781","size_leaf_vector":"0"}},{"base_weights":[-7.878302E-1,-1.0664666E0,9.1817695E-1,-1.2438364E0,9.0817684E-1,9.254128E-1,8.987944E-1,-1.3990946E0,9.033941E-1,7.727449E-1,9.135274E-1,9.2139095E-1,9.647477E-1,9.892937E-1,8.947109E-1,-1.5217829E0,9.133006E-1,9.397385E-1,8.969919E-1,7.280656E-1,1.1057906E0,9.321203E-1,9.0244603E-1,9.098877E-1,9.3740624E-1,6.0195583E-1,9.6905136E-1,-2.277285E-7,9.9506056E-1,8.744667E-1,9.1627324E-1,-1.625409E0,9.084924E-1,7.800295E-1,9.168953E-1,1.0073384E0,9.072687E-1,9.013075E-1,8.339186E-1,6.581032E-1,9.2598444E-1,1.1950759E0,7.5220203E-1,9.3906456E-1,8.636407E-1,8.920211E-1,9.365716E-1,9.0447897E-1,9.81338E-1,9.3067664E-1,9.9210674E-1,4.4264522E-1,1.6009902E-6,9.589303E-1,1.1208081E0,1.005484E0,3.1196415E-1,1.0197797E0,8.7002915E-1,9.214567E-1,7.697001E-1,9.0819705E-1,-1.7075509E0,1.0033617E0,9.042549E-1,-4.929703E-1,7.925535E-1,9.5688784E-1,9.073171E-1,9.9205476E-1,1.3954847E0,9.441973E-1,8.2780796E-1,8.606489E-1,9.0786624E-1,6.510758E-1,8.774254E-1,6.232542E-1,1.229747E0,9.5272493E-1,-5.8283314E-2,6.5448326E-1,1.2785238E0,1.276209E0,3.7365982E-1,9.235489E-1,9.892913E-1,5.816759E-1,8.906722E-1,7.868076E-1,8.9559996E-1,6.240898E-1,9.4199336E-1,9.232636E-1,8.945858E-1,1.0010065E0,7.319539E-1,9.671004E-1,9.203384E-1,1.039286E0,9.354713E-1,8.575391E-1,-6.643835E-2,9.677921E-1,7.9081464E-1,1.1928774E0,7.870754E-1,8.934269E-1,1.0687177E0,7.447132E-1,-9.648285E-7,4.6180478E-1,1.0637367E0,9.591727E-1,8.617319E-1,8.322617E-1,9.2999566E-1,5.160814E-1,8.954244E-1,9.165138E-1,7.3933905E-1,-1.7779537E0,9.214046E-1,9.536054E-1,1.3721198E0,7.6089174E-1,9.069103E-1,3.488448E-7,-1.1219518E-6,8.075233E-1,-1.9807768E-1,1.0078934E0,9.062377E-1,9.855453E-1,9.013508E-1,9.536503E-1,1.1428157E0,7.677735E-1,1.5670899E0,9.506702E-1,1.8959682E-1,9.9825805E-1,7.7720743E-1,8.701477E-1,5.637962E-1,9.2065305E-1,8.8039666E-1,-8.297224E-1,6.758742E-1,6.248561E-1,8.9952284E-1,5.491884E-1,9.1009396E-1,1.3018326E0,-1.6014017E-7,5.2190516E-2,9.808808E-1,-8.2972217E-1,7.5371713E-7,1.2470657E0,5.2190166E-2,1.3204744E0,2.0734999E-1,1.6653462E-6,4.4871727E-1,6.350624E-1,-9.648279E-7,9.2983955E-1,7.7212846E-1,1.1004003E0,9.441642E-1,8.477278E-1,1.912808E-1,7.756949E-1,9.3886596E-1,1.0043305E0,7.3415685E-1,9.1058016E-1,8.699692E-1,-3.4354016E-1,6.894682E-1,7.2124845E-1,9.5002764E-1,5.623818E-1,9.2651844E-1,8.7315446E-1,9.1850084E-1,6.178975E-1,1.0145769E0,8.4136873E-1,-0E0,9.3161535E-1,1.0214562E0,9.3083566E-1,8.602796E-1,1.0514591E0,6.4100367E-1,6.523939E-1,9.6338946E-1,1.1046656E0,-0E0,1.037176E0,-3.49996E-1,9.794983E-1,8.65792E-1,-7.5174534E-1,8.2705504E-1,7.5676423E-1,1.2778883E0,3.0672058E-1,1.1450074E0,1.275772E0,8.1716186E-1,9.4880116E-1,1.2101328E0,-4.807444E-7,1.1507864E0,-2.145328E-1,9.52709E-1,1.1011994E0,4.901546E-1,9.160108E-1,1.2374336E0,8.852991E-1,8.33189E-1,9.020073E-1,6.656685E-1,8.9040506E-1,9.5511454E-1,6.331957E-1,-2.5788075E-1,5.089159E-1,1.0309564E0,9.230343E-1,7.5679153E-1,6.4119464E-1,8.988012E-1,-1.8215116E0,9.108509E-1,9.1214186E-1,1.0052694E0,-5.5070765E-2,9.70346E-1,1.4689891E0,7.9498637E-1,8.112109E-1,-0E0,9.14878E-1,8.481283E-1,7.720665E-1,1.286249E0,-1.1857068E-6,4.9296725E-1,9.625551E-1,1.1368992E0,8.626385E-1,1.0008234E0,8.737126E-1,1.0583422E0,8.832588E-1,9.2473775E-1,1.1703353E0,9.122754E-1,1.4847137E0,1.0504034E0,1.0473182E0,-3.488474E-7,6.3280076E-1,1.7301887E0,8.5966825E-1,9.828012E-1,8.1458765E-1,-7.330339E-1,1.0554415E0,2.9856563E-1,3.549822E-2,7.929834E-1,8.1430584E-1,9.2185503E-1,2.6690802E-1,1.0828943E0,9.4483274E-1,9.011858E-1,1.0107274E0,8.664396E-1,-3.488473E-7,-1.0468937E-6,7.898633E-1,3.712603E-1,-8.463078E-7,6.8660414E-1,8.3636904E-1,9.8534364E-1,8.4560966E-1,4.8587832E-1,1.3902203E0,7.9352343E-1,7.5099397E-1,1.4122496E0,4.6226537E-1,-1.0468935E-6,1.0034453E0,2.611705E-1,-1.3959167E-6,-0E0,4.134159E-7,1.5404166E-6,-6.2824446E-1,8.2971907E-1,1.3795722E0,7.393031E-1,6.9786796E-7,-3.4884707E-7,-5.9277875E-7,1.4425525E-6,-0E0,1.1200769E0,9.2419803E-1,1.0463072E0,8.191834E-1,3.5140085E-1,1.1138312E0,3.0025405E-1,1.2488052E0,9.309317E-1,1.766275E-1,9.8836607E-1,3.0133942E-1,-1.3959168E-6,-8.463076E-7,7.955289E-1,9.927233E-1,7.433352E-1,6.874465E-1,1.1841315E0,-1.20128825E-1,7.4986964E-1,9.21201E-1,8.3140177E-1,4.8886114E-1,8.739342E-1,-1.0468937E-6,2.5753047E-7,1.6500898E-6,6.142727E-1,2.1326545E-1,8.4029764E-1,9.63541E-1,8.5305524E-1,8.2506776E-1,-2.6564562E-1,9.4013876E-1,8.5395336E-1,8.862921E-1,8.0506885E-1,9.1103214E-1,1.0359333E0,-4.072701E-1,8.08851E-1,1.0680143E0,9.560114E-1,2.170338E-1,9.1764235E-1,5.6681573E-1,-4.844352E-1,1.2371873E0,9.211439E-1,1.0447342E0,7.8335285E-1,1.0167097E0,9.2553866E-1,7.370157E-1,8.9783716E-1,1.0252347E0,1.209753E0,1.0712082E0,3.3142436E-2,1.259467E0,4.9403116E-1,5.951025E-1,9.8560095E-1,1.2701558E0,2.2772555E-7,-6.22266E-1,1.046891E-6,1.3959143E-6,3.4884496E-7,8.013452E-7,-5.514316E-1,9.8188686E-1,4.3932846E-1,7.71639E-1,1.057169E0,-1.4425553E-6,1.6013793E-7,5.5611986E-1,9.805328E-1,9.8825616E-1,1.6915597E-1,9.3889105E-1,1.3697597E0,-1.0881446E-6,5.875978E-1,1.2780434E0,-0E0,4.4680712E-1,1.4795924E0,1.6739439E-6,7.799747E-1,4.9469972E-1,1.0039426E0,1.3069059E0,1.0185423E0,1.4559497E-6,4.1341596E-7,-9.69099E-7,4.4871733E-1,1.2015811E0,-0E0,8.199433E-1,1.1906793E0,-8.01348E-7,7.4621564E-1,9.226104E-1,-2.2772852E-7,1.3570588E0,6.150724E-1,9.936359E-1,8.740762E-1,-4.3171953E-2,8.358006E-1,1.025992E0,7.5977117E-1,7.0748496E-1,-4.0833023E-1,9.021273E-1,7.114436E-1,4.260846E-1,9.5979095E-1,1.3388742E0,5.0120854E-1,-6.801941E-1,4.487173E-1,6.692828E-1,-5.4635906E-1,1.1390325E0,5.7978415E-1,9.2269124E-7,8.516473E-7,1.0293084E-6,6.727871E-7,6.757232E-7,4.508695E-8,6.5337457E-7,1.039628E-6,-1.8288897E-6,8.937975E-7,7.439861E-7,9.115101E-7,3.305678E-7,8.99628E-7,9.983826E-7,2.0041928E-7,-8.917881E-7,1.2881812E-6,7.9880516E-7,1.0323392E-6,5.383376E-7,1.5028698E-6,1.4431861E-6,-1.8492497E-7,1.0773407E-6,7.0627135E-7,-5.375633E-7,8.239199E-7,8.886855E-7,9.535272E-7,9.0768333E-7,7.6420747E-7,6.067235E-7,8.402301E-7,1.4051433E-6,-0E0,1.0468912E-6,